{"layers_num": 4, "weights": [[[-0.0013246556072809747, 0.00020492370285225567, 0.000895946335103203, -0.0011538142132319989, -0.0003220787482676246, 3.945800963277386e-05, -0.0016612365322328895, 0.0003812888293061638, 0.0010237093066843201, -0.0010398669217063041, 0.00042410053197746095, -0.0015876379324958748, -0.00031448765430334784, -0.003140564744507862, 0.000689431596256355, 0.000466895728620082, -2.978229595549614e-05, -0.0009378126553069118, 0.00154102628604791, 0.0023798558508415757, -0.0022478394991699326, 0.001495546532652658, 0.0019691783454901146, 0.00040893619969094395, -0.001450908700864895, 0.001044499810969232, -0.00021888254616205031, -0.0007306404155464654, -0.0014881594468366531, 0.0006660559787530292, 0.0009591603785418745, -0.0007543652766157913, 0.0007806551542494408, -0.0017597264311878431, -0.04771906410574299, -0.09127476958664038, -0.06371091591608652, -0.00931069615596084, -0.020038183180192543, -0.005760145405897266, -0.012357369078239061, -0.04303860182990407, -0.026758100268489113, -0.0325597126893284, -0.019863165068579627, -0.0011553070302764942, -0.0014481936530125192, -0.0024937140421132766, -0.01038998717820267, -0.057577216009891734, -0.021429812906653488, 0.003367280839621539, -0.00016507474623544851, -0.0001440351549940975, 2.1062399145418966e-05, -0.0013574502881580639, -0.0006255956366189223, -0.0012062315180842026, 0.0003009965018730422, -0.011109796833504553, 0.000932684729192168, -0.003224485542622963, -0.038908696068923436, -0.09595022597342837, -0.06924955105635924, -0.04613024637215986, -0.15938509520387717, -0.082219181837637, -0.15233991741717798, -0.13640133470337049, -0.2309692111715139, -0.17101380816774486, -0.18419904392368722, -0.18984125306590435, -0.12556044753286666, -0.029128228993866946, -0.04405551527888104, -0.040045215674396305, -0.023822648748344916, -0.0030686399981128603, 0.0010686072182499288, -0.0007971579287279323, 0.0006808444397561924, 0.000291250606479103, 0.0003395566224117492, -8.845383613212769e-05, 0.0013086058398707615, -0.03069421024799793, -0.0028554280730007362, 0.0067202543501921515, -0.03783385690547302, -0.046545030009649116, -0.048313108525792986, -0.14472597042674093, -0.26073795872843725, -0.1513867237914024, -0.36494221477113664, -0.5303405433031513, -0.42909891871819605, -0.3921649973091784, -0.4120422774407373, -0.31914991927270275, -0.12944907905414532, 0.14150413820316188, 0.12340374275704226, -0.04586668273789674, -0.013377082382612536, 0.023419068405369784, 0.052583183001517854, 0.004084101419759324, 4.8522773698667187e-05, 0.001059614937127974, 0.0007541613562616214, -0.005267220232413713, 0.0013367999912482238, -0.001170032855269505, 0.006720723910394777, 0.06004557641692369, 0.002773186145667053, -0.011462710744690432, 0.0613324773018144, -0.1728710898420316, -0.14785055215786336, -0.08871248931416935, -0.2199669837096343, -0.36251846551822725, -0.5188094362947769, -0.5656540174220323, -0.6753720691855212, -0.65041365370421, -0.24540979865211898, 0.31121572050177954, 0.31276576113499205, 0.07827040272712359, 0.3877754788759908, 0.1917987039842371, -0.03366425082151437, -0.000995931711720508, -0.003124844304713269, -0.0038947337551175935, -0.0010420451211509342, 0.0008162852646778645, -0.001487417685583525, -0.005930460063728156, 0.021109731726873894, 0.13728579253933548, 0.13579069810229705, 0.11825221412750825, 0.11155176890814603, 0.19233774963040287, 0.3116712333624088, 0.039920912232183754, 0.22043573771506103, -0.6102319644207659, -1.0326139163163575, -1.1849080377304666, -1.2869234532330853, -0.9786460858278283, -0.0637073344702934, 0.7904303473537679, 0.6568536307851331, 0.38233559807378, 0.5561503459644968, 0.45496329515860934, 0.22680048007872491, 0.01053468979624291, -0.10592177594712897, -0.0013953895192989787, 0.0009180247491111586, 0.001065753512964464, 0.00021649392578065396, -0.002448750038721867, -0.00045207308917881195, 0.18336180254482515, 0.26718926521534103, 0.26103203696907695, 0.39145942306339476, 0.5686475556225471, -0.21380554946856595, -0.22926509033395545, 0.4358791041230046, -0.1573011553392236, -0.7081766692233806, -1.8883631988982643, -2.047821211407159, -0.8905782725427343, 0.3797797197056691, 0.9136060223004737, 0.6259731162173154, 0.39134392494138476, 0.7760096393034464, 0.5211661433073724, 0.14558451584195986, -0.06339018216588321, -0.06429581446284659, 0.00239896611843872, 0.0024952729106907058, -0.002217183784516725, 0.0009351458662406732, -0.018268267222817245, 0.011313618036876355, 0.24996613420451747, 0.1277497208136269, -0.013671766185287869, 0.17793579680690486, 0.14332771570802347, 0.18247300408885406, 0.1036720175157441, 0.3575176862450772, -0.012215711306881526, -1.1999148505128185, -2.3543315075171423, -1.9544245150793715, -0.38961585484359273, 0.8744099463395683, 1.2143761134543851, 0.27890350777604656, 0.46703788941075014, 0.8020293461683327, 0.39832852313710476, -0.1181965286966072, -0.11937350639115506, -0.03224923194458978, 0.006283031513127954, -0.0003040052837065209, 0.00017049407857610614, -0.001507814584802349, -0.06692042967542265, -0.006315617499944686, 0.21718390051078762, -0.010149205671508255, -0.04921760936031263, -0.1641080214796505, 0.04133291078322449, 0.02145308287639523, 0.1515162784238694, 0.32075304653475734, -0.23143234130552134, -1.2610364984016884, -1.954110551704021, -0.8577881364560024, 0.4571014113392257, 0.7958784596655835, 0.6500803107490185, 0.11457289860426914, 0.29710295209005644, 0.2449331840225331, -0.17854020846456717, -0.44983659013602195, -0.05506105056275892, -0.00417626748508895, -0.008968423638277379, 0.00017771351684044454, -0.003983158383485147, -0.025061000451569036, -0.08620563107027573, -0.025181667580325032, 0.16558522447578042, -0.2512902191242125, -0.3692027897112262, -0.11480015783960054, 0.10961542831108138, -0.2103934228197957, 0.6126890216096448, 0.24230493326061614, -0.7270339131442672, -1.4993237714143572, -1.384577889578762, 0.07141911889852201, 0.42293108820342507, 0.4620937996928552, 0.24862326154266834, 0.18685636577718998, 0.08167862335603358, -0.08460278215531167, -0.6414119222998086, -0.26913451472661126, -0.020396525267858262, -0.023577181273264, -0.0009456737969712745, 0.000726866862531283, -0.001557394918147604, -0.12164856837257229, -0.14648158482191928, -0.09658135616016893, 0.13382785297655964, -0.5677494448421447, -0.2885889567349801, -0.06221540877114901, -0.14930997140332541, 0.008371500061690285, 0.5987928662793137, -0.10175526849335566, -0.9551942852252912, -1.2183960269074536, -1.1150226372147722, 0.2979512206855615, 0.5275671769441531, 0.3544100634131061, 0.3350282342317284, 0.05166213819573356, -0.09096432313219908, -0.26287573704112305, -0.5315942618923584, -0.13635496495321078, -0.01920269841939937, -0.01607320691871817, 0.002594944573307301, 0.0022814967351626465, 0.0005668998132528758, -0.1565288602850825, -0.1191144507089768, -0.1029343120389322, -0.00013194621306036072, -0.5296623775158883, -0.27071829108692913, 0.11135461814493348, -0.43875432549761095, -0.05054746053024017, 0.07796358086093107, -0.03926396484392532, -0.648263824182387, -0.4220515863217624, -0.3201863283866684, 0.3621123531980492, -0.11243662079898957, -0.09741238873191323, -0.1459769172458714, -0.3278660502114281, -0.09316415492892793, -0.3309327034445255, -0.378807860645186, -0.25735889150017793, -0.08318165355474295, -0.0010291417250669125, -0.0006210315652417502, 0.0006952383122839183, -0.00014261431286239845, -0.06366276939525811, -0.014094534332953297, -0.029211221196163904, -0.17178412453278447, -0.2593262843056817, -0.018239717127880997, -0.10592579344448806, -0.46404997501937406, 0.011550206624435165, 0.10926676608237113, -0.049437366814841, -0.11387233620924359, -0.09902105442795406, 0.04215431511455334, -0.17749890566161203, -0.33352430251822823, 0.2020372658466329, -0.06205155839104688, 0.20691729770401637, 0.11919847070843359, -0.10188663745236817, -0.10919487259194033, 0.04853102171181745, -0.034126589252274006, 0.013787720394997215, -0.0034498881868074826, 0.0010588693765096855, 0.001966443954121028, -0.031371832054425716, 0.034952123374681655, 0.06405067322120175, -0.10527058267118158, -0.10346423927424547, -0.1523577396153447, 0.189659093773951, -0.07682614437055936, 0.2268989662794392, 0.21910338607971133, -0.11696440668425619, -0.1442151799940313, -0.09164229645924883, -0.3061313633518553, -0.33157588415668227, 0.08573245130462732, 0.40072669995609356, 0.26592219220385427, 0.477730735815191, 0.05227373033664155, -0.036703261309593956, -0.2071975741839798, -0.14167555172740512, 0.06118635667089942, 0.02777307314629006, -0.0035269878185809657, 0.0006468761108077564, -0.0019332921275570622, -0.016015426356273087, 0.024310411959089923, 0.22678644899554168, 0.3058969752534227, -0.05491677216180374, -0.0960680736422851, -0.06822724855544221, 0.3090759140262613, 0.6785638732920934, 0.48268646011179206, 0.10024648415291046, 0.20754461107632752, 0.4032532801141809, 0.38585287401161544, 0.2559179359912975, 0.6709799540837484, 0.34260237347858036, 0.5397324472580938, 0.03991242260855237, 0.1910515722025579, -0.011108807304738764, -0.2738107151383663, -0.14249059747742351, -0.09386047725046708, -0.04071394646333268, 0.001921026042219439, 0.001174442834890732, 0.001055822383774177, 0.021295265627334855, -0.02364469785681982, 0.0755755546723213, 0.10683619913905996, 0.39973851331917676, 0.24400867850107133, 0.02913965024460421, 0.2157118923705796, 0.4952593342486413, 0.13393783017057684, 0.12008818281692714, 0.1521550583277801, 0.31590709110311005, 0.18982622988524556, 0.047688068824552246, 0.39352332143813923, 0.121067311655408, 0.31808583666232826, -0.20789888979681875, -0.07140314810962878, 0.15979023816367485, -0.07944214637865937, -0.23743209514227454, -0.16590009138055767, -0.0157156194231905, -0.0018451655634192728, 0.0012393684422361561, -0.0017333842073900176, -0.003708663904571244, -0.07101980099702516, -0.14731332555026824, -0.07077034799779015, 0.3817993663115815, 0.21678331199296627, 0.0022120591915606217, -0.09071066233486412, -0.1054174830540405, -0.20401726268174775, 0.01354997194330324, 0.020886008326752623, -0.05500023479689468, 0.03958403857565477, 0.21486640132697327, -0.12905689413336532, 0.11249407747959515, 0.2889964084869373, -0.17315043259791446, 0.08142928764976244, 0.07277310548485301, -0.0780455941205884, -0.07650589119675467, -0.09072484883322679, -0.014934005432968732, 0.0007506848129954157, 0.000943699095663994, -0.0008477217289256594, -0.017936728299678892, -0.11835632886233043, -0.01670873249209312, -0.05980477124525746, 0.27134945895023493, 0.20997246012587448, -0.08959094728258662, -0.2907725301503917, -0.030632578238438363, 0.2825394721452797, 0.0840494142883201, 0.03658989209155092, 0.2636525057247708, 0.21295882925034335, 0.27182721454658426, -0.056739407392436755, 0.4610726981158868, -0.1829141184616598, -0.22877430718650438, 0.08407993837599242, 0.025157327260697915, 0.010674163995034963, -0.029776126334121588, -0.04172839453315995, -0.01666136038774476, -0.0018611721373879048, -0.001628344731572428, 0.0017497374922442464, -0.029873862985154286, -0.08394563256842488, -0.044026638748949146, -0.2706360092188284, -0.300556111545342, 0.011753428836639882, -0.05232997289555921, -0.15905625758466688, -0.3101170429186894, -0.002925753507651193, 0.2173336388380391, 0.23674277472488459, 0.15044979401391403, -0.11570683829778731, -0.1092555469952172, -0.11183629674175603, 0.3115882429874557, -0.34433119676803337, -0.2805454915788561, -0.008854201194518232, 0.020196101980621314, 0.2090377882112431, -0.004967109277293917, -0.0234450313997059, -0.004517281149974965, 0.0003370766346167088, -0.0007127986350331411, 0.0006060123730620934, -0.04085352662791441, -0.014262176072903174, -0.21608272390728828, -0.39743726709015603, -0.20589242001624572, 0.08515109388796108, -0.13567187865769645, -0.05654105939021778, -0.03992004105543615, -0.38404106522427034, -0.661485048441879, -0.2362681273307927, -0.10638620216346437, -0.09090471165280549, -0.4183636288954418, -0.07983298767428079, 0.07125591079164247, -0.3571387481181796, -0.577713583885328, -0.14679109026350953, -0.09695182331977516, 0.0009496133770359049, 0.010894395106593324, -0.026467861025457267, -0.010214959756543405, -0.0012667577102779591, 0.000837896216481215, -0.0012032011150976652, 0.014213281576232391, -0.03861387649790363, -0.14676585968927996, -0.5948430040846849, -0.5197066084949642, -0.2802744334385328, -0.22727568221949299, -0.2900575891305847, -0.31682876948663113, -0.5606937984906551, -0.47013520425409083, -0.40210325278491144, -0.39969837436357397, 0.03451404697367551, -0.17431073689237161, -0.07390687251381511, -0.027453640518560935, -0.2003991496697995, -0.14804510757252035, 0.021558289900208142, 0.02229791747785037, -0.06599658172942663, -0.0345596487552314, -0.043738383030966124, -0.007558491559815615, 0.0034886323708489303, -0.0005922502676045801, -0.0009461441581969809, 0.022109997928606934, 0.0016343369247872534, -0.06586639160894062, -0.31150233303987934, -0.40111606574153463, -0.3359465029423139, 0.012836432349000032, -0.02037890067058027, -0.06608305831135693, -0.15266084416652756, 0.030181687815975734, -0.1785265774597317, -0.14234888616747776, 0.12451403883794243, -0.11151183404714636, -0.07966043976212261, -0.05108905833447814, 0.01092057563464362, 0.2828715554281359, 0.17768175496810207, 0.16091604209505497, 0.013455820338533136, -0.03186608361835001, -0.02599695856772005, -0.00189251551066047, -0.00023388002831272345, -0.0025107076451419785, 0.0011653742030637716, 0.016860808648386478, 0.03546961897022025, 0.03337568743567336, -0.0011797746117570107, -0.18310513090532848, -0.08448770025471733, 0.042283939093610556, 0.26092015843773725, 0.24979217121542602, 0.15204324684779846, 0.25694914623988, -0.10597790099233774, -0.18923458162553294, 0.28379276692440303, 0.08691123209191226, -0.4559744491086307, -0.12299352477553702, 0.042325293824693265, 0.07445958348578692, 0.12182772880786477, -0.03594281995870346, -0.08531403654893574, -0.14781637907162234, -0.04353478179635574, 0.0027340680432047376, 4.851430174844094e-06, 0.0003886766744780568, -0.0008773857197811753, 0.006402440236038293, 0.004145723089547956, -0.01902749977802859, 0.014742091002014696, -0.022206652764024896, -0.042046573179860734, -0.033533897050209725, 0.06429286223179091, 0.06502863740220349, -0.20203486511383428, -0.12780679485473098, -0.031211578181500915, 0.1845889643255538, 0.24321374271418386, -0.1157365346570156, -0.4921739386544165, 0.10887421860388267, -0.07850167940066817, -0.1930633421538488, -0.08165421513319114, -0.13150796704742435, -0.18533982848268565, -0.20677926057843307, -0.01393987372810421, 0.0031962339532144537, -0.00017696558326860985, -0.0010374241374185246, -0.001130199861805806, 0.0024494030065970846, 0.010294848838784927, -0.013996870522591702, -0.06286941904770463, -0.19957289203984824, -0.3255112911083814, -0.40111160228589005, -0.07354511442784473, -0.12459278514610206, -0.09628237768471522, -0.15638523021899678, 0.22172661857104123, 0.10588368978240842, -0.09593247847880704, -0.0453864924974926, -0.08253083880306028, 0.022981715025456102, -0.13582504872546108, -0.4874676340411262, -0.2500849113579466, -0.014181406702994555, 0.05574254196297797, -0.08019361806176623, -0.0011241098646564297, -0.0017802165612133957, -0.0001869078565116338, -0.00011182725762477158, -0.0002877882867433754, -0.0008633449648066709, 0.008594415233866459, -0.02206400500427109, -0.09829661698705422, -0.21176440144298445, -0.25678305350847674, -0.24527843392566254, -0.24374928382231995, 0.04250396120934701, 0.08699366741946288, -0.09336244034224643, -0.3064271117487587, -0.32846790104431156, -0.3381614925618673, -0.2537461433332743, -0.3190016973019454, -0.18565354934601905, -0.5555096724824475, -0.5799933521061265, -0.2386199947285113, -0.10403607670589071, 0.07114844232605594, 0.009569088072230987, -0.0007286365567861119, 0.0001680227915377742, 0.0006917858656890068, -4.454305188306504e-05, 0.00013594660550919253, -0.00018208442959896643, 0.001086084287109177, -0.02477138020542044, -0.07254507005852497, -0.09249629344805288, -0.12863126292593066, -0.16109098688856566, -0.1397057163246192, -0.09717407941466377, -0.12560570454650588, -0.21601725054793214, -0.44948693777146614, -0.41969467138613753, -0.5506609693424652, -0.4256599753453556, -0.26338046192079373, -0.20131997433625345, -0.21908905471520518, -0.12522389026462613, -0.07429257125898767, -0.02565868872479566, 0.012604476459516841, 0.0015407838990771521, 0.00040922042732511113, 0.0007437133970056131, -0.00042221103657512094, -0.0011829376896110016, 0.00020803864733383344, 0.0005934947547820479, -0.0016880532346838153, -0.0006865906743493787, -0.0005908690761480278, -0.00782939861478468, -0.04555814393064694, -0.03872439587880681, -0.005617408559311333, -0.015767924574808787, -0.006746588452138292, 0.01009234900633772, 0.004723796907142759, -0.004531534059108029, -0.0030652321219920074, -0.03231031357817696, -0.006735630461698518, 0.006634020910888778, 0.003889209333213481, 0.0009311392712954817, -0.023926909838065842, -0.017395296524583895, -0.00037192414966879145, -0.0009289108903323877, -0.0004410285389545068, -0.0005561795740196566, 0.00206334264599247], [0.0002909704826680248, -0.001209134711839142, 0.00048223570873311063, -0.00023229155328833702, -0.0036945313228470195, 0.0005805390969039634, -0.0018784993125738197, 0.0006998427689731641, -0.0011629641431717642, -0.0017643225627788125, 0.0005980686412641538, -0.001807718271780919, -0.0011422135748896916, -0.0008572552813116825, 0.0009779280936432666, 0.0009110672308828801, -4.389413860940904e-05, -0.0010070556539135505, 0.0023274868212437606, -0.0007331335004560731, 0.0021820334366180463, -0.0005474776308494935, 0.0014049565828738015, 0.0012944748531863884, -0.001264917179204254, 0.0004298333388358909, 0.0009138948409912951, 0.0008480681814625286, -0.00024068020639451547, 0.0003653198829457881, -0.0004775068432225072, -0.0014176932777830774, 0.0011900454993790852, -0.00045787114606208294, 0.0003731735361070674, -0.007752592822431072, -0.011974141900141594, 0.022003110928346916, 0.05485708861825173, 0.010291678482943932, 0.004926486196532644, -0.010771940779065538, -0.005283799570302338, 0.004525460850306875, -0.0030322923139675614, -0.002462261663340418, -0.0014443638476975646, -0.0020491557080476014, 0.0011810723260350655, 0.0022121150050422984, 0.00238094585309852, -0.0004203787921047227, 0.0012932897446654816, -0.000253765089063469, 0.0011313684792890605, 0.002192847892720697, 0.00016950893410071975, -0.0017169267028415813, -0.00038288574429737934, 0.0006491470246148435, 0.00029223201089462897, -0.0009379186382676968, -0.020220329867977456, -0.046314541173471835, -0.07037770431066045, 0.024849430469949148, -0.01210820494146309, -0.03831797147588201, -0.023116583874131732, 0.003959866078942602, 0.030124578469642276, 0.042011670932273266, -0.034721843589265854, -0.03980587849366897, -0.037796390542705845, -0.03358528848450257, -0.016050984878489796, 0.012492757741481847, 0.014339421898462665, -0.00011547503969363952, 0.0003718708984766205, -0.0010776463203095563, 0.00013469900320031567, -2.3618948363754016e-05, -0.0010162425679501187, -0.0027804350808536844, 0.0017631661212913435, 1.690242937704591e-05, -0.0035710645971429762, -0.009731643123136667, -0.059814984793322076, -0.055192274881826243, -0.00413100381086706, -0.05200427158146555, -0.10041164300555852, -0.14386932234386016, -0.08893778771454229, -0.04415298318793802, 0.015949892824596336, 0.012323519283830242, -0.011715196739021822, -0.012819078190771879, -0.032264257077580696, -0.01280164752682508, -0.012506276184527092, 0.028055120836287584, 0.02134149444913954, 0.003911046312378332, -0.0016337097624911, -9.503380524384182e-05, 0.0004201665937434697, -0.00022618351598142485, -0.00018538948291822954, -0.00294251234994658, 0.0005910976228973439, 0.006646239384442223, 0.036769849910183235, 0.035686902835256676, 0.04714956289660843, 0.10623096361714883, 0.15054266414573558, 0.1427184882146515, 0.03084186354584993, -0.06308758608626672, -0.2497402768117732, -0.25930082991527964, -0.3724804810968809, -0.33182189641355153, -0.05390878765064621, 0.015407196669327905, 0.1047732396817729, 0.17115428431285268, 0.09452424630744946, 0.02288725322372063, 0.005494358913998369, 0.05204253669986214, 0.01461796205181026, 0.0076576467246587095, -0.0003071851478184383, 0.0021781222628315423, -0.0007675209287892273, -0.0006352850760444002, 0.0003667783158755723, 0.01558273791141857, 0.0547356941596275, 0.14227652984346673, 0.23986211537886973, 0.30566057171366273, 0.429842623667119, 0.33019256675408987, 0.09735095074746739, 0.14550707172664093, 0.0416131868519366, -0.14784014811256327, -0.22481825685976, -0.4105186110012889, -0.30088735379980774, -0.11481247479418649, -0.10786592638550518, -0.01955090301472596, -0.016720419349385552, -0.0433439135135696, -0.03030341188791679, 0.04690343174714073, 0.014841302021521527, 0.0064074069879116995, -0.0009013127608709315, 0.001708465512324277, 0.00033773023682098183, 0.001985056676750691, 0.016411976222289168, 0.06540605239236873, 0.09251038982341243, 0.19147269783414794, 0.3478477738211302, 0.42687270411122147, 0.4400383166525135, -0.029417967765276963, 0.3054039943729683, 0.5839365639030446, 0.4305553706654196, 0.3359872185683155, 0.2418028239744092, -0.007965370724797478, -0.020320139982318675, 0.053038114265143835, -0.2695214428272191, -0.04688165599332133, -0.11532786152542719, -0.16013374454510823, -0.1242044647859509, -0.0694284221184173, -0.04878665660997272, -0.018198029229930683, -0.004396329537525293, 0.0008087415150558159, 0.001973620170670703, 0.0011402198093103514, 0.01762899051827669, 0.07027204039406491, 0.0385085645022984, 0.2841313401019145, 0.35818052699094677, 0.48238320804268203, 0.16403679704834395, -0.08572394031697594, 0.22194814027005996, 0.38109685733006776, 0.20258424045708984, 0.15455933718877413, 0.04240031685671128, 0.012696291043977336, -0.032663623694920284, -0.06091563997138897, -0.2421324007034077, -0.20533991847095354, -0.2714698327222973, -0.19537528432603782, -0.1868646006747832, -0.19070262658926637, -0.17718756766210755, -0.04716475405422558, -0.005398393477055834, 0.001313642365533758, 0.0005532400158898415, 0.003329789353287521, -0.03523202741163244, -0.01855313218380222, 0.06980896932789507, 0.06332765380358016, 0.22451688627082558, 0.21905180578447, 0.051002190570130036, 0.1385301258262537, -0.1647886051893867, -0.17363676914390558, -0.13134298296582111, -0.0033116495424821697, -0.08854254502278718, -0.18482462677022599, -0.43143815312357614, 0.04223813184868162, -0.07173253291467802, -0.17754150624243206, -0.2053279667799029, 0.07142076402781664, 0.05087022730218318, -0.1781263617617145, -0.09722936257722345, -0.026336105875371815, -0.013489266922720384, 0.0008637406151378413, -0.0027959445915385415, -0.010084167273260064, -0.02510206029944694, -0.06861412425620446, 0.09132010239023465, -0.1572633625906078, -0.022803590240747837, 0.4645646757068645, 0.7909307422006449, 0.0761851908830171, -0.347690688781721, -0.26208733249406074, -0.30951562783516834, -0.4161320802396926, -0.46947638467830327, -0.17592480644909203, -0.5469353460457758, -0.2539608002762444, -0.025172883585627553, -0.5245618074407304, -0.543289802082572, -0.1150258059154088, -0.10373219009583816, -0.3033594889138875, -0.02780971932754124, 0.0011799112547895548, 0.05854614923256079, 0.00046844564710827745, -0.006174924494379707, -0.02844896221974704, -0.02271671927448567, -0.011858807713604702, 0.21448618192617414, 0.10721119665198094, 0.3428735692099701, 0.7491898314184278, 0.659904192743017, -0.25461919466595956, -0.7687749043896239, -0.8034850361111185, -0.48593407980774733, -0.48384165035361143, -0.3108994775751476, -0.24569362556412677, -0.20633108419208337, -0.33154899154215134, 0.02447859330992116, -0.5477540989956783, -0.7626984342930038, -0.39849968338651653, -0.08563220267545502, 0.02113867890687262, 0.08721324465014746, 0.11255391913047744, 0.04826650838834161, 0.0001018868808858521, -0.004823354587074596, -0.0346972360306313, -0.04429527869433099, 0.029418443266578623, 0.47972650736893085, 0.13459257382938156, 0.3710078813411157, 0.7562669020370112, 0.3366792526403974, -0.737260936673025, -1.0035931217484377, -0.7733475641956965, -0.3192358259382821, -0.1431489764667715, -0.0364434438196958, 0.17398782289398143, -0.0463047595677032, 0.27496533282897273, 0.20663717893604364, 0.044578169709418976, -0.24077943896504644, -0.06868908089314972, 0.129244853471056, 0.2966422437860882, 0.12322097255887901, -0.004205771281609903, 0.008048213887897629, 0.0007806894848115108, -0.0010864284734895936, -0.03135359916461531, -0.016441951534462096, 0.20900634213027172, 0.7803947062301059, 0.20609991999780158, 0.4618446134632317, 0.6599515362674188, -0.02704536169666953, -0.8225624214828547, -0.8989035142385009, -0.6896221252568838, -0.30807175997133546, -0.18401131221128836, 0.059324351899758494, 0.14359835521518874, -0.06783077989208032, 0.09262806641223702, 0.1765720416802763, 0.5037112120192747, -0.1185204282893858, -0.05605592984974466, 0.007013362638217041, 0.07869881305870553, -0.05076087573504067, -0.06041433991498507, -0.003862470847934144, 0.0011921546412781078, 0.001818603173429732, -0.014408860395015176, -0.011182964336304054, 0.2891286643816216, 0.8070617127740001, 0.2036807452075763, 0.43677467309387324, 0.8568857550388294, 0.1876109135716732, -0.4357602910114637, -0.5119584873280965, -0.18801922144841549, -0.13728407464177816, -0.17650247120840443, -0.16068774034611266, -0.1885069023115896, -0.15129810561961562, -0.28466630641928864, 0.1274585238987429, 0.32351457866971495, -0.27272099407751926, -0.15660362756668403, 0.09421796420011513, 0.09239027994119181, -0.23616011430106684, -0.056812585949933235, -0.0021891695331734736, 0.0027331932038875406, 0.0004988642558942527, -0.006681323024349043, -0.012708109467796345, 0.2769140177401481, 0.44844740175313214, -0.10690467403784805, 0.08567429569454825, 0.7268811234461062, 0.8493765449984214, 0.14697766575545787, -0.010183705440004819, -0.2400345111461558, -0.5153532320008692, -0.5755371436617731, -0.736894059071261, -0.6248058600004089, -0.3439536550268589, -0.11624861082110877, 0.37190942525673437, 0.07507430963636748, 0.0017441691844580296, 0.001233288101741095, 0.1828289624843851, 0.314102443541546, -0.20907966852539847, -0.1129806029585807, -0.020562450439617967, 0.0014678517242603106, -0.0016793447810727242, 0.0008911009596103957, -0.009706881209543538, 0.2568255216844118, 0.23317665637939505, -0.16673683523392865, -0.2995041000394493, 0.3148894947618102, 0.901770102560728, 0.42785295072578133, 0.17662515549311453, -0.11505575057861557, -0.20268245988433214, -0.44315348899624024, -0.5781514917048373, -0.39349415074462324, -0.23912648396160407, -0.20268463656614705, 0.08926481259137653, -0.10102735286068687, -0.08316468664623933, 0.08983928865014058, 0.17652592101746267, 0.3018756804261049, -0.2047877540409316, -0.07083968670446184, -0.049989018908978416, -0.00013661767458716291, 0.000900122707939451, -8.561436514240267e-05, -0.0082092083092568, 0.1530470997330374, 0.15772338434167746, -0.26116100670699244, -0.5352277239428637, -0.4357917858150787, 0.39033037299305423, 0.11426094190691874, -0.08144687588405784, -0.05474145428705161, -0.14636791118576456, -0.30304519063104635, -0.33018715506644325, -0.3462430366319902, -0.49704708310661166, -0.3131978567797316, -0.17375272957206955, -0.09165533645203817, -0.18112268453693176, 0.029552161493910045, 0.43380999604437737, 0.31264583433695664, 0.01072426512105799, -0.057705512242195875, -0.045691909409033636, -0.00016572815944079184, -0.0004502158150274513, 0.0011282168635569168, -0.003381380845998593, 0.14737702167909664, -0.016505847842934705, -0.2760517485153652, -0.4915040529671448, -0.2635079583459069, 0.21143292926960508, 0.4174621938724264, 0.3517842969161677, 0.36025978778604834, 0.15447897467807967, -0.11292935208537548, -0.06894779407361135, -0.24297443264457988, -0.4503380604129141, -0.3540435685270998, -0.33536872858869543, -0.13681939428071407, -0.0485596035282911, 0.20621178300014714, 0.6083687517640488, 0.31773268834276314, 0.023124772811035428, -0.10296566721683913, -0.02622838683843056, -0.025858956063573517, -0.0006754117980524227, -0.0031516797126772914, 0.001599727582394715, 0.1023093414569742, -0.107660700624815, -0.4989303387226189, -0.3678238696369332, -0.0218842968780225, 0.007223551320066502, 0.3287766771743406, 0.7587942618519747, 0.3709643241216799, -0.10010853563560239, -0.32205000092630065, -0.3417860499898168, -0.12042585800280883, -0.18553091549627948, -0.29237829851936226, -0.3607834215602602, -0.5179457783719372, -0.10514102852579779, 0.5235655092356066, 0.6268042202860965, 0.11528876391735607, -0.16531376765845776, -0.15423919944916606, -0.07231135502567694, -0.05816331132944793, 0.001664015114135561, -0.001447276133303756, 0.0014073320372008336, 0.04325556457413474, -0.1316525626740812, -0.24553568739746945, -0.27027480748037624, -0.13825888519945362, -0.04164340801724481, 0.12684580571037812, 0.5830321079518807, 0.5856653692645877, 0.19722526079340122, -0.08469018186189498, -0.28640252596443316, -0.10638070825930668, -0.23754677710995928, -0.5801103866032395, -0.6167850082874798, -0.5596862554778212, 0.004602474209668787, 0.47838511583449317, 0.4647766284440161, -0.03027782920399334, -0.13890430141218355, -0.055887019529695846, 0.0009051722174002278, -0.0002682906568488405, -0.0010922716150992794, -0.0013198024565686274, -2.29676915955996e-05, -0.016169570860447218, 0.00399010941045942, -0.05578321222085916, -0.07282559244583481, -0.24371664468807525, 0.025554374494920287, 0.032118902230140835, -0.07300433863110309, 0.21678041400632234, 0.10809643024810049, -0.14015081982682073, -0.2820780972122733, -0.42865626152709957, -0.49471074469558207, -0.7161542935522212, -0.5528836487780565, -0.204160467724536, 0.5420191762307612, 0.5991349866404707, 0.578654309569444, 0.08064240370167108, -0.01794298095999851, 0.05283994350306896, 0.016326689462503513, -9.396047881610165e-05, 0.0018482001871804612, 0.000800731220542888, 0.0013528855503686734, -0.02631863227078265, -0.03907829235755763, -0.12642541328654264, -0.024413287531360094, -0.24939148367478076, -0.1607490025010115, -0.2311285014000528, -0.27576970458461414, -0.30328599162638836, -0.3011543981354754, -0.695346343551954, -0.9120059946592387, -1.0034010712591501, -0.5213929406782872, -0.613333129331338, -0.509925341617503, -0.05169929130648149, 0.9111526118723857, 0.4870299528672338, 0.28788174741194184, -0.04134213545688978, 0.02921372340416309, 0.03140372614072999, 0.004309975706034312, 0.002253943093964292, -0.0007796341249474368, 0.001003028335833795, -0.001097813348102632, -0.010171544768442701, -0.024664337262304624, -0.014511511956466916, -0.0008001197262695683, -0.19444930023192183, -0.2145483269748362, -0.34498411065476925, -0.28198100363511314, -0.4584398059888178, -0.429348527336959, -0.47687428086373074, -0.4367115442505208, -0.1752514076064503, 0.10960314867036643, -0.04598508823744917, 0.014998757652626205, 0.26142386243628046, 0.9296230761276626, 0.20491264037948226, 0.2295306441784722, 0.05620428861188427, 0.04009007296909051, 0.0020152755443264745, 0.0012888817895630623, -0.0028046468190266586, -0.003166472271624174, -0.0021955086353127756, -0.00043445695328185043, 0.007426060559499228, -0.0023243852274462936, 0.037592527404014656, 0.059476365176299416, -0.02177113531046846, -0.19689922414013641, -0.26656940931343304, -0.22495486141982363, -0.30614002576564114, -0.5036536795661793, -0.4328771218349713, -0.31413585340951306, -0.06856257757734556, 0.07335579903889637, 0.19414285944392723, 0.35446172684351596, 0.4702925216221575, 0.8628868231408765, 0.2717600801575626, 0.3175429739618584, 0.19350480940141257, 0.09617077680147841, -0.021891923699206152, 0.0018172861864185197, 0.0005166676094568347, -0.00030040748534328676, 0.0016967863835257154, -0.0001339045550565644, 0.014691126753181738, 0.015032657904433035, 0.033727013078368354, 0.02819550790434824, 0.006513413962311042, -0.016625352891746204, -0.07200956135666707, -0.03342415075498411, -0.06898385239176925, -0.30960597306258786, -0.23154507602552304, -0.2925567948715704, -0.47194774136246653, -0.307670358185148, 0.253399586419936, 0.5989988736674111, 0.5702700088133562, 0.8355036193900365, 0.47996828861339835, 0.25928562952407636, 0.12833032346992373, -0.0027045691529249943, -0.004074224394136119, 0.0011464770987821863, -0.0009232717041205909, 0.0013997170468246594, 0.0006539524490022806, -0.0018315406653792146, 0.011168325127600952, 0.015156745265255858, 0.01916328450072126, 0.025364152132303995, -0.02046507892404314, -0.027123319989777534, 0.012716985668767247, -0.040112140368310956, -0.054169228269362754, -0.06890872275362518, -0.05097905194015988, -0.08703534177064963, -0.23604462620805544, -0.08893641776347681, 0.016807400514789364, 0.37457316798194584, 0.3545167747228916, 0.5610474958940208, 0.3673823887331081, 0.10453408205181819, 0.07224900537718475, 0.03744119818362472, 0.002635885362316963, -0.0014220528391908195, -0.0022980246816435485, -0.0030729105546896656, -0.0010767008407997524, 0.00026383759207970314, -0.0003841323416279912, -0.0003052564458072809, -0.0007309933580169634, -0.0017507729070486036, -0.007432922369190822, -0.008057964229496907, 0.006916148272174523, -0.004431067638137989, -0.026412313305687985, -0.05046014969307414, -0.05039925344388344, -0.012988741377128498, -0.03145073243643697, 0.0734163410578328, -0.027715252150613236, -0.0874656306298968, -0.1985814642102056, 0.155100194065696, 0.20819656868624495, 0.043258970702248385, 0.0038741008656376866, 0.0007140006131462676, 0.0013029725430728923, -0.0011518584888986281, -0.0013748892075794012, 0.0022138728048805, -0.0017241946209475558, 0.0008654308272561871, 0.0005312688318310942, -0.001337602160340527, 0.0009117666791335488, -0.001314656265839078, -0.0014046723220572145, -0.0007717610227770973, 0.0068486255242943645, 0.0038819435330206707, 0.0066721987094615085, -0.009235465373088801, -0.030899033036993664, -0.056792328533436104, -0.050173418642234, 0.0001530495783242396, 0.061349760092181654, 0.03292959635252399, -0.032304332123241734, 0.030594278893667986, -0.0062969635918336255, 0.012362771915490083, -0.000943330444603147, 0.001994516176613215, 0.000523601938322348, -0.00023111254484369079, -0.000951071954036312], [-0.0006927500245706669, -0.0019959150130004627, 0.0025824414107332976, -3.262228790345911e-05, 0.0028847214038162216, -9.012909978633099e-05, -0.0019578872315695267, 0.002252174602587873, -0.0010402432788430397, -0.0005297938545942646, 0.001994464169646336, 0.0017648654737907107, -0.002406671335963902, 0.0001139016124740404, -0.0013017170591561162, 0.0006529495406361925, 0.002192423577391211, -0.0006260739599279423, 0.001806543571064837, -0.0011235003542390922, 0.0026280748815594624, -0.000998899647080029, -0.00056055950033603, 0.00035926750071543214, -0.0016944791441638849, 0.0018747610270938165, -0.0012945369962462016, 0.0007427761286177631, -0.001559626322381291, 0.00013281854216594985, -1.2734867513679853e-05, -0.00046970493233730793, 0.0005934551104130294, -0.0013448436774151117, 0.0018846826627835515, 0.00030607598061308287, -0.003110035355803931, 0.0023770600115652837, 0.00041002511513982677, 0.0012253473794403037, -0.0009479641801573515, -0.002658656972640692, 0.013558723710688954, 0.02554620098385554, 0.002091571452190259, -0.0010219147974354285, 0.0003258778917298396, -0.0027414416241970906, -0.0005781323082360684, -0.0004779674458734882, 0.000826090767734495, -0.0020651597344181053, -0.0005142630009139844, 0.002006378863406028, -0.0014288836093293922, 0.0008929184176684979, 0.0016096842799446247, -1.2206889789008644e-05, 0.0011960063744410757, 0.0012836566301310196, 0.0020505394156081097, -0.0004286745754797372, 8.640844862905088e-05, 0.0015878727747598506, -0.0006249465060621149, -8.359077098628681e-05, 0.0018126008236337763, 0.00022353090550882439, -0.0001310553104406801, 0.009310918298004444, 0.005318053101039348, 0.05335132403473757, 0.04272855670805018, 0.013576265524872967, 0.006544438738227557, 0.006572287849044786, 0.001672190835498183, -0.00038748867131952266, -0.002443799576676393, -0.002036508204162003, 0.0015263641591897977, 0.000391524060185087, -0.0007385558587300335, -0.0012777872010298116, -0.0009772055771711035, 0.0014922326656878007, -2.6262028796949224e-05, -0.0016389927645209235, 0.0010925431252294887, 0.00014224922310302282, -0.001074939121594774, -0.00038118609862837683, -0.003926201371619468, -0.00287693769555858, -0.007616546427121353, -0.0172875291718331, -0.0036378089618237515, -0.0064001689413673134, -0.0014858683106586984, 0.06345668543607073, 0.07322910427142418, 0.050886012021504314, 0.01928880114240336, -0.0005128089987737898, -0.008322474381877836, -0.01253716009711369, -0.008302112129928601, -0.001619613832440395, 0.001099891506764064, 0.00023984491942416396, 0.0007573453923943526, -0.0007931837839124158, 0.00022463534342723592, 0.0007668907734290818, 0.0004916891524631326, -0.0008295537546668113, 0.0008440623363997236, -0.001885941619895782, -0.00261921782496761, -0.00853888383253567, -0.01019511196044587, -0.024671648478062413, -0.037918526326504685, -0.0364770549884494, -0.035894487984115174, -0.014892433381295754, 0.04168090674376057, 0.13327130643502533, 0.09350683349577528, 0.05659523775750675, 0.005009242554486842, -0.0327301528915421, -0.025780103377413068, -0.017185915624716733, -0.010133503574284625, -0.0009909417597395844, -0.005266980353155322, -0.002631058968546738, -0.00044910120150931475, -0.0012095017798713146, -0.0006674385077053836, -0.0003830700000414738, -0.0005272204269561582, -0.001498433748319459, -0.0011990312399498058, -0.0016293884351348926, -0.008167336075723362, -0.017481938502003237, -0.018812194182014286, -0.037398947805572666, -0.06310947387485169, -0.10127193029398832, -0.11022708948760401, -0.04478206682793792, 0.025966983651629832, 0.08811626165020085, 0.03169821927756464, -0.01669567883761824, -0.07796571803828976, -0.07159164638503031, -0.05279894538911682, -0.02997742844677041, -0.011617077249271034, 0.00116466317156913, -0.00012824636153658197, -0.006779414463447027, -0.003072323867923749, 0.00019580786857919275, -0.0001725098055616825, 0.00032367985119107287, -0.0008858596316264481, -0.0008090003010912761, -0.004172490821648156, -0.009516929140419218, -0.02304522521201266, -0.03682732647661825, -0.04672117116491797, -0.05789523956633708, -0.10729851101717618, -0.1275501525625236, -0.08499895244723056, -0.05588285621964503, 0.04355276298762734, 0.05713916713451233, 0.030737885076244906, -0.014883937636924437, -0.0942038876001179, -0.09719332128216901, -0.04550464412014274, -0.029442181260100293, -0.009465048893584743, 0.006578808796631878, 0.0035974892979164573, -0.0011397819144525598, 0.00026673982016160654, 0.0007971524986610538, -0.0005362231695504434, -7.320989087017349e-05, -0.0023525882959352646, -0.0010466398524764274, 0.0004868486219565086, -0.016079434104026572, -0.041878571252942934, -0.05963304976777626, -0.08601272772395425, -0.0822265430224098, -0.10159868180406527, -0.07974535431732388, -0.0648053112732333, -0.07328726369561334, 0.059073318374376654, 0.05881801314719685, 0.04006350878155303, -0.036681772852594226, -0.09895197416878536, -0.08987687574456496, -0.042175810728466996, -0.016969742999964142, -0.0026953819002930564, 0.0022853445172159948, -0.01187673133687067, -0.009736093601179167, -0.0020121485826615805, 0.0005055754513822468, -0.0009977360195657183, -0.0009030203776451461, 0.0009669996659029926, -0.0017644251894052213, -0.00014455767829796827, -0.009971909159180236, -0.03182428104394679, -0.04218000755317812, -0.05978242627105412, -0.04775702618575588, -0.04795072900933095, -0.06918788159736419, -0.07133316906920832, -0.08719049143154443, 0.027343421860447695, 0.08220658329819877, 0.04412157048049273, -0.06029940751348185, -0.1016739474192229, -0.08346309129869244, -0.0273643492777035, -0.02075719032582823, -0.013888885193038925, -0.02026261016173051, -0.023752766948321825, -0.005224747548699125, 0.0013479981854280572, -7.363725784386116e-05, 0.000788934882562562, -0.0008709831180297657, 0.0027428675464659835, -0.0028172076070001185, 0.0028601313652564142, -0.0027934421263519915, -0.018011137753516482, -0.026635212524217085, -0.03616682311888225, -0.03004413004563357, -0.03181555651802086, -0.07237335969487585, -0.10856094254990052, -0.09038426561979784, -0.0017515042322760127, 0.09430930125364716, 0.03776106046362514, -0.08190726777602396, -0.08887713907794785, -0.07291018055924975, -0.050244922044519594, -0.04377927110826309, -0.029941335180115124, -0.024078925966544592, -0.010031524245966985, -0.0019053958526948891, 0.0037436835358393276, -0.0003298978134546072, -0.0005993642535452386, 0.0006586957061670078, -0.00040999595953403114, -0.004462094659655961, 0.004252170625986497, -0.015858646671004024, -0.03247255678010412, -0.030667242658510223, -0.037041430317085795, -0.04115333128583857, -0.03075505029170585, -0.08009932825566911, -0.11817113539476733, -0.06505087908756159, -0.024006068394285155, 0.08109160416335992, -0.022413668403016836, -0.09719168245729752, -0.07944801490645528, -0.057653063706838065, -0.05687852278123805, -0.029229658785074674, -0.016745132988625646, -0.016583547796414178, -0.013628060506490316, -0.0025731626707657346, -0.0014694240168963732, 0.0007274412016527309, -0.0003028439075344778, 0.0026503003510940574, 0.0025052531042536502, -0.00043977903497830856, 0.005088347025972442, -0.015325705236967694, -0.040128399206290265, -0.03807811755767382, -0.05219686790233974, -0.056330141658820554, -0.04861528321197616, -0.06144046789561893, -0.09767692781268648, -0.0676350502641913, -0.014990010481858803, 0.07346218898298594, -0.055389336855780825, -0.09881268601126804, -0.0677886171173701, -0.07005419818861051, -0.05282518061411352, -0.02507232450927891, -0.018437211619312232, -0.014331797332058329, -0.017876594731015855, -0.004974420297437673, -0.0028454813787747095, 0.000562596171743071, 0.0006653511363652294, -0.0010982188609810482, 0.0009711408112559017, -0.0012919008553971703, 0.005199314251509099, -0.025821941146637523, -0.03817745430476204, -0.027645518039053976, -0.03411014484061907, -0.0546432626333822, -0.05574212701843931, -0.05221848526771789, -0.07585993604067252, -0.08507795506353096, 0.027469860935214842, 0.03254679138554083, -0.09676840471395577, -0.09266525940974596, -0.08089044023062567, -0.06067027374968679, -0.04517881334033007, -0.027678959599359943, -0.01644595675215175, -0.01995581616421209, -0.01602933533807221, -0.004645107611863372, 0.0025446899480181568, 0.00027033705224930487, -0.000855254632569728, 0.0014123029064670599, 0.00136098337319899, 0.00014144495448438062, -0.0032799838937033186, -0.0240319683433195, -0.03880182874913756, -0.021945180427318856, -0.022268001489626266, -0.04301550145077867, -0.05788481488281389, -0.08564199852909767, -0.09975038683255581, -0.10473092523928738, 0.04126962537364776, -0.007169152740999641, -0.14450115149511134, -0.10948774518244031, -0.09595523817383526, -0.06588246156501408, -0.039251203502898, -0.02855186748892292, -0.02291540138224477, -0.028998117645458996, -0.018698648218512512, -0.0030406202959644014, 0.0009757615607138976, 0.000789225762539243, -0.0003815173391933344, -0.0015213402486573243, -0.000569834679394872, 0.002555846449486279, -0.006375733007153194, -0.026572783310401134, -0.03249296089255697, -0.023477032517657946, -0.01476533255478454, -0.025428527036021317, -0.06029975966749052, -0.10088995135462242, -0.12038212712041643, -0.12358650762197748, 0.04857386361401382, -0.025454481264196464, -0.14561837620854873, -0.11326466595900904, -0.0981756591922696, -0.06988831803374639, -0.03671460474620272, -0.026494057276907287, -0.02566750646347465, -0.025540235953568358, -0.016569043094377834, -0.007852496936323672, -0.001313671643535387, 0.0001745469029559601, -3.1982603918792165e-05, -0.0012686017204176165, 0.0012780953836622035, -0.00010787740312832401, -0.007769306184511897, -0.02646200166954835, -0.030492569220195512, -0.021134959834645282, -0.015039529646540891, -0.020423050099850393, -0.0670497911688854, -0.08699960376725903, -0.117650707592751, -0.06804097637565891, 0.02496206760234134, -0.03623793212926531, -0.15177328109090932, -0.12870630200455596, -0.09371854859241995, -0.07917733785386047, -0.052323159244044785, -0.02993264663812389, -0.03307083047070848, -0.018002345144182953, -0.015589972194551613, -0.005174304609594153, -0.0036390204152196713, 0.0003529943472659852, -0.0003981117988546018, -0.0011935702853997025, -0.00017970783696086312, -0.001710349466953497, -0.004647218141716686, -0.02251217243631783, -0.035289560636735544, -0.036588848671217845, -0.040043802088035776, -0.04191435703110554, -0.05857944640087062, -0.0720651136057999, -0.12309452583647867, -0.05471515114606028, 0.026225176085910663, -0.05595588980568274, -0.15311329689835296, -0.11323372857771455, -0.07392612205993411, -0.05657863683898821, -0.04430794400202585, -0.023178506199309973, -0.015458848591008163, -0.010600707633383541, -0.0003759319390984947, -0.003172931338922932, 0.00036863637211643373, 0.0010194296016058828, 0.0011564468552656402, 0.00033276787954536447, -0.0012008050838289497, -0.0061370649467332545, -0.00865164606127548, -0.012056597428431098, -0.024329332363848214, -0.047597374645560735, -0.0514350192214623, -0.05870420829091414, -0.06762851714637429, -0.10650043653916605, -0.1394837977922441, -0.028923890910675078, 0.0536603182217345, -0.039392466636500936, -0.11969563322222895, -0.08626872523484791, -0.03828763304106172, -0.0295500175347919, -0.01945026278548728, -0.006818300315071553, -0.00812545887662409, -0.0011679574008390042, 0.009638819991055193, 0.005769810397580941, 0.00034871786404801674, 0.0005129629555808251, 0.0009308696955676824, 0.0005187146704531637, -0.0011936691047731646, -0.004347334089964152, -0.00872748049039663, -0.014694914516364493, -0.031197330533384842, -0.03995844822326287, -0.0261114376878682, -0.03353580844615523, -0.05084401388807487, -0.10405546188594594, -0.12236975598579897, 0.009203404185708917, 0.05787770826858053, -0.029524006928520603, -0.10384139518776381, -0.046476219880870244, -0.012634601326752273, 0.00873313915648819, 0.015388961251325543, 0.006202651202465772, -0.021530249988682946, -0.016438075397691612, -0.0011713755638830337, 0.006526075009194805, 0.0012185133637073924, -0.0013027925588764983, -0.0009284970782002281, -0.0009023700443498839, 0.0034289265316743084, -0.0014306926032898368, -0.010993297375036563, -0.018358778502368493, 0.01006072972738497, 0.040280113489890926, 0.041889546399110064, 0.028033984034323032, -0.04652380466545964, -0.06018782999222651, -0.06081685025491786, 0.07483809235652554, 0.04161676698647392, -0.07573016925835341, -0.0481270995847594, -0.023587693924730035, 0.010198287197583991, 0.01907614823532407, 0.017465931042010645, -0.0015005316036512972, -0.0047390512253670065, -0.0008015628877594212, 0.0006970249952689784, 0.007022769718379094, -0.0015445016071472559, -0.0008045656832176626, -0.00019409909465300962, -0.0018046605003429832, 0.0052586968940597405, 0.00032193169618603945, -0.005638505740330464, -0.009224936784718482, 0.04280438815310348, 0.051376098273519265, 0.05962923465912979, 0.014971966807759281, -0.031162798216803244, -0.011311834158202765, 0.019372009107530137, 0.07060894382484724, 0.05976572280228353, -0.0664967632981763, -0.03273371269377448, -0.019581913889936287, 0.020890022213700652, 0.03430641065998866, 0.014818314467405768, -0.008097733503024238, -0.0010693181660423835, 0.0022568396828301046, 0.008441076580262928, 0.0021804525832890918, 0.0019924522001950403, 0.001380494813800327, 0.000571478013558406, -0.0006943449937389214, 0.0010165678498378573, -0.006232762263245745, -0.009158696004876603, -0.009930915628482412, 0.007144649220570439, 0.020252257730477334, 0.009575758727534878, -0.013596804292811716, -0.022542643460693734, -0.026866171173184017, -0.016748070502397135, 0.06628477560970003, 0.018588644645074294, -0.04851713762576978, -0.03799764205455689, -0.053808976162151266, -0.011538777963952269, -0.008621985359615477, -0.01316731731373862, -0.017739215878314528, -0.008737335694552406, -0.0016395243071249952, 0.010815258594757139, 0.0013544353765386939, -0.0015937126158165544, 0.001370911932947675, -0.00016908616229764013, -0.000626034347748415, -3.329452344445446e-05, -0.0015216036398160442, -0.007482889702056312, 0.0027909129555489386, -0.0006235363998198081, -0.013806565132433755, -0.025234638589133586, -0.05697910804199513, -0.08275184036164393, -0.06682723488820247, -0.05163386482012494, -0.030194821593107095, -0.027738233282731443, -0.09187169625755248, -0.09651447023527987, -0.08751628471970897, -0.0452042765926405, -0.036558478200343913, -0.02789636745000163, -0.012807124457679989, -0.00618722023507831, -0.006436040610666525, -0.0028421354003516463, -0.0005124749969092391, -0.0022564745489790784, 0.0005418055960152865, 0.0014567878553369833, -0.0023508171384054944, -0.0020944052186261585, 0.00024712031398576006, 0.00012663470645379751, 0.00118574682595797, -0.0027232341736425185, -0.022290586274722822, -0.035898223689215254, -0.045466550353470365, -0.07741391270423013, -0.04711760385206985, -0.01691233034877001, -0.043785185511686406, -0.08812602872026441, -0.09993715585579717, -0.08254317670395153, -0.039962518269782955, -0.02804078281314464, -0.017206940230514455, -0.005123578439616619, -0.013905075666033656, -0.01138786339894473, -0.0054135927146388985, -0.004333308142087499, -0.002642377391013746, -0.00016993599368237517, -0.0021514600331963983, -0.001573350307036671, 0.0006063133082740311, -0.0006983921922221003, -0.00032270567870756715, -0.0006911152991430469, -0.005696744788619683, -0.011892924707934049, -0.025108723378902697, -0.027877886777643742, -0.018330114884093234, -0.024600321812597095, -0.027871245642294852, -0.032423620589751075, -0.07551774070518961, -0.08967689519560751, -0.09511574784700509, -0.03790091275902747, -0.0053489906311558755, -0.011853623790175495, -0.013536544539707325, -0.00871843466371819, -0.006246895598504381, -0.00443350660887863, -0.0014469425033743924, 0.0007137561017842729, 0.0008063146309833528, 0.0005718612943239962, -0.0009247198993630151, 0.00034641154162331453, -0.0006748834424522201, -0.0017753321674129953, 0.00014252462909442962, -0.0026404468144503516, -0.003408386405345728, -0.01017122491083711, -0.011129660563807596, -0.0050305545940865365, -0.01236952556390859, -0.027277204049629935, -0.022667350515421122, 0.0088630956170046, 0.008557980153288772, 0.005844265207675141, -0.02790186836125264, -0.008163862706531117, -0.0006575375125879632, -0.003152829615628955, -0.001035631129393039, -0.0034273580578886116, -0.003976461249476512, -0.0023571314233643784, 0.004795754122629575, 0.0017456850531613643, -0.002012006243643727, -0.0005874129810424444, 0.000874491516701062, -0.00033328487829271383, 0.0013780591932999317, 0.002134439504519877, 1.093845733724939e-05, 0.0003320158329464342, -0.0016824399653930545, -0.00037724834572073324, 0.0008475203322940149, -0.001637705599268625, -0.004833386278029018, -0.0024288391648478597, 0.0003135886915602649, -0.005979844682018395, -0.006925668878722204, -0.008513368064309914, -0.00349848335844703, 0.002651424926597442, 0.002289324960042669, 0.0002497056718098707, 0.0029188294795665032, -0.0025456301783701525, -0.0008053522264644704, -0.001433726503534859, 0.001198276645572469, -0.0021753293807526023, 0.0015618421247130512, -0.0003742831796162333, -0.0014925329973761088, 0.0008670651376441035, -0.00023201709976266338, 0.00033529046988590126, 0.001485558995999423, -0.0013345652112003172, -0.0009422208212550694, -0.00035313791995819063, 2.965405381825922e-05, -0.0012027300601373562, -0.0014729654520762741, 0.00028265015435358673, 0.0008100175762350147, 0.002194933773583582, -0.0003935237319651797, -0.0047637108047844335, 0.00012863843177768564, 0.0018545566047735065, -0.0024454645585769543, -0.0022320837181299016, -0.00032167580628618815, 0.00014673404701368684, -0.0007918621257762868, -0.000744654163071096, 0.0005816310219236097, -0.0021488653344913667, 0.0011022535376069215, -0.0004425996274779308, 0.0009249164879449532], [-0.000850050069244221, -0.002070941999275083, 0.0014289753514598032, 0.0019854934067663208, -0.0022509231982104864, -0.0015634331469814777, 0.00011393337471146252, -0.0012695460730541624, 0.0009197742663548659, -0.0009643106586233799, -0.0006261836955739901, 0.00025580006129212744, -0.002640930018343823, -0.00039449575702990504, 0.002442865546904346, 0.0007102584947878032, -0.0012087512101306996, 0.0012654989536591496, 0.0024961006413227985, 0.0015421303114814256, -0.0007072788797512182, -0.000795578582251451, -0.0004482134743669019, -0.001269174709669039, 3.534609829354258e-05, -0.0012167116493399781, -0.0010588895959108074, 0.0003881357085057617, -0.0006818860556356859, -0.00024727058296577034, 0.00259892736266791, 0.00044548244934591895, 0.0014316206988235266, 0.0005049437971792103, 0.0007247289907371283, -0.0016645284617943096, -0.0014370179573787497, -0.0009843807358088895, -0.0014479888688521984, -0.0008006209881604704, -3.331619369431554e-06, 4.426329305489104e-05, 0.0005820192512142143, 0.001059013219211267, -0.0007547117520940856, -0.002015988963264457, -0.0026230261164071206, -0.0060374953662416094, -0.008882873042182854, -0.0029244516832988396, 0.0013091661210239652, -0.0015502295765348335, 0.0012584064770530387, -0.000111018940704853, -0.0010059059933606104, -0.001595874225986885, 0.000664189974543884, -0.0023062149136887215, -0.000558376870468575, -0.0008189131888790164, -0.0005882812990600401, 0.000673186588864742, -0.0006206409593507515, -0.0006975570401185324, -0.0024813230399307936, -0.0036288475483926713, -0.005779189077661799, 0.0010033484564905219, 9.933366007665499e-05, -0.01420698839354982, -0.02548967094190824, -0.018790608270945683, -0.01951644261725573, -0.02314458791249019, -0.022308074974629638, -0.016311623122640607, -0.012481278624873195, -0.001812064808210519, -0.0030276633614054107, 0.00043888263558520337, 0.0007977763023764263, -0.0007683487515160729, 0.0014065328121509815, -0.001658497756898981, 0.0010970318486317146, 0.00017972795414783997, -0.00018237397785306414, 0.0003252082763453542, 0.00011649522074924698, -0.0013343471587566186, 0.0012568034142495666, -0.002966885757993177, -0.008456698395508045, -0.013057387574507747, -0.011056784138337723, -0.0054234758339518204, -0.010834219788832894, -0.05351865333879314, -0.08701216059916667, -0.07686399118838032, -0.062021062627987004, -0.07262120382248004, -0.08120479122790478, -0.06082396481713015, -0.022094688525573506, -0.008230954418662197, -0.006694755045162003, -0.0005616636725496939, -0.0024412944474244275, -0.00030024678565885844, 0.0001987390436438147, 0.00124098108487298, 0.0006762127794460379, -5.524530194588138e-05, 0.0001104380291399286, 4.036425356796857e-05, -0.0014874112687197033, -0.0038373356644768554, -0.012210798654272917, -0.014852627217805617, -0.02948607651283088, -0.06039231313813487, -0.06435062667469488, -0.08256208888396488, -0.08740504996031494, -0.10320979645486192, -0.08830123772144725, -0.08458836633640757, -0.04777918692667209, -0.0382117601355568, -0.011229228287084763, 0.0012227239189304374, -0.001594535210043917, -0.013462692021326847, -0.008743592366792164, -0.015891729871341593, -0.0030415854531622645, 0.0013860602533820971, 0.0021416140730528685, 0.000745556442301679, -0.0028514024465313907, -0.0010885885952557758, -0.001271380818183024, -0.0006875776027177327, 0.0041233923324909445, -0.012453751362479653, -0.017118202004675495, -0.04142461103437079, -0.08079836002251092, -0.09389038496298938, -0.11938571707778681, -0.13369977458007595, -0.12449507369213683, -0.16656053557229583, -0.17626151077554428, -0.17120596913301506, -0.1334304696595672, -0.0720478228167191, -0.0671945986781932, -0.007748010835959377, 0.004527024929270336, 0.004247485574971949, 0.012502266969883411, 0.020564708627224922, 0.006137680530959353, 0.008083011559484111, -0.0019915515448475675, 0.00041718612007408474, 0.00020008374371121768, 0.0015080540624134622, 0.0004615842027979443, 0.0007009703324892423, 0.00032298171484783025, -0.019990107429033812, -0.05250825657512846, -0.035056485182335256, -0.03942275974723932, -0.0523110818521313, -0.033365449388403315, -0.054024371155651424, -0.08092658935072253, -0.13274825634673937, -0.18296848193396625, -0.18635262933615854, -0.20032123636292506, -0.07358041589328461, -0.02764271121365873, 0.028118052773401032, 0.009093659925123787, -0.012009077762652802, 0.01548047466451066, 0.03122925906691796, -0.0013664225391695755, 0.0058606504985513255, -0.006392690213254189, 0.0016460386047109118, 0.0021032610206215916, 0.0007012405051623221, -0.0011557931534115203, -0.003956364307505349, 0.004779868815183054, -0.005766583098041261, -0.0057382764134444745, 0.047271506883053004, 0.04333348797012758, 0.006148766751214213, -0.026015032650685773, -0.04327513289532943, -0.07308884465779615, -0.10353679960104879, -0.14894346422967647, -0.1795027842034192, -0.12546008927977625, -0.03187295982284512, 0.026624690003731955, 0.05724086608562802, 0.019394963515135935, 0.004413695215401319, 0.020853229621779004, 0.025588556194071625, 0.015266589003249236, -0.0017750233873086944, 0.0014936618869970141, 0.0005159996097011647, -0.0010251801663064785, -0.0015135955191209484, -0.0024665610719671912, 0.007474073332736756, 0.024492467693830153, 0.012250995608679946, 0.011516835002970375, 0.039112129968581405, 0.05044119553054301, -0.004963715048543862, -0.04983249661919027, -0.0680117802282361, -0.07737700575890771, -0.09869798727713625, -0.09092007482352252, -0.13081526442830904, -0.08274161101226564, -0.020087963939787765, 0.03862302761178018, 0.03392068930199468, 0.04023662190415533, 0.02170130766202742, 0.021847030917056948, 0.03808386424639005, 0.04812087804751079, 0.006325654987545507, 0.009012873428178716, -0.0013048028047929364, 0.000573888374120791, 0.0018814372306176308, -0.00278238257114659, 0.018253237578950653, 0.032572445554805506, 0.028100238286927634, 0.013489746725015128, 0.024060505939581797, 0.04933085185559005, 0.008335206432984918, -0.04981560031991279, 0.013489677100825706, -0.0439926877428901, -0.10734073361387507, -0.06679243045391788, -0.07108396942137903, -0.057549975681240595, 0.001443009247947307, 0.0032267157752758025, 0.004412517365514399, 0.07206607476128624, 0.017413421387258383, 0.04686860800437967, 0.03163943392155649, 0.042326893732973186, 0.025414910360545644, 0.011476943664327284, 0.0007963271530243669, 0.0032979100687373776, -0.0010816815425835548, -0.005488206943078414, 0.02883071007813056, 0.04751472255834567, 0.028575523131027455, 0.02275731670016388, 0.03435968864913433, 0.05686135629501833, 0.030612775258640482, 0.004599825392293325, 0.03070031381916254, -0.05748554620452585, -0.06494586222764512, -0.08280932023079599, -0.06336144127794366, -0.053570948578584694, -0.005075336865560295, -0.009799881812263588, 0.03054434197025664, 0.04981184969584035, 0.01945953506996866, 0.04693738653186258, 0.040688042269741306, 0.05396650091209818, 0.023671238879861587, 0.004919710968901575, 0.0008080493155278092, -0.0017670544029813823, -0.0030133563916853985, -0.00810283157891403, 0.020553518202703305, 0.05416138384738958, 0.0391244736694814, 0.04155931304142799, 0.06987019450392401, 0.08097319020272227, 0.060859429039268796, 0.03592269849715176, 0.010546289540939969, -0.07621544497300786, -0.030647945029617586, 0.0035040703130778195, 0.025385722156940658, -0.0016704337089237177, -0.04766779429234318, -0.0380786410368634, 0.014212238513716901, 0.028731346544833933, 0.016226557692085104, -0.002265558405548889, 0.0014567790737866158, 0.009996888019689969, 0.009250692989784653, 0.0017478460425147731, 0.001998720194147847, -0.0022810276580504424, -0.0009924434847359278, -0.002838635856835745, 0.015902085177355033, 0.04675211889125934, 0.030695589950357392, 0.02845855462729591, 0.04416218138838277, 0.04708650024999283, -0.0007119513334263214, 0.0178731556898125, -0.057000741205758675, -0.058028684528479965, 0.02985879311431304, 0.1269463964303946, 0.11114653958194984, -0.024552275402232555, -0.1383576883456383, -0.07911139240539773, -0.022740868012237216, 0.03562548594743399, 0.00792600650632299, -0.02606077618187638, -0.023708911997084102, -0.018054087321466405, 0.0038428980462163376, 0.0012655824412231627, 0.0006849769927641415, -0.00042811993780419923, 0.0039031958608065965, 0.004098283423965379, 0.019916543762363414, 0.037830901687073905, 0.00919710155376252, 0.03674096846900926, 0.005537674569881443, 0.0073154808805383055, -0.017296606612918815, -0.09719272897573246, -0.12221911850459306, -0.07163448850720494, 0.020604801621856482, 0.08201815101885439, 0.08093502048344292, -0.045488797005414486, -0.09612441195900195, -0.06251585065276137, 0.010422731875280008, 0.027027511929151246, -0.06660637152836446, -0.06594782813029512, -0.04356136918357655, -0.03692227632910834, -0.0034038758352556513, -0.0016201872792096918, 0.0010093582258348575, 0.0014052032328155366, -0.0003196716702608228, -0.0010356911501638098, 0.013728259891813283, 0.020213219125766842, -0.007978388702264467, 0.005641380526767434, 0.00886358101751258, -0.008964028328126894, -0.062487569497774134, -0.137397928865267, -0.10154997715541676, -0.0001393450942766657, 0.0513952300222603, 0.05772332075241652, 0.00491507559672527, -0.03926685281849586, -0.04764871899708409, -0.009621083923921836, 0.023830391439613026, -0.06170069649999428, -0.08064094795523181, -0.07179774843190678, -0.06213094096085971, -0.04628418507422537, -0.011095569734892289, -0.0063935216124142704, 0.002390928579414694, -7.72039046130664e-06, 0.0020848574305509775, -0.0014952758746837372, 0.009714038916931716, 0.001166371353753105, -0.05451419032074915, -0.05562730323421088, -0.026363472716544198, -0.010236621928287259, -0.03372066188375614, -0.04006002469653365, 0.023830373292728496, 0.10410313420882397, 0.11915439303872892, 0.05539091423886598, 0.027062881721614824, -0.009516745361033117, -0.023747723320059182, 0.02122531573293571, -0.020470471256071942, -0.09398384605539636, -0.10459726187297363, -0.074071785408037, -0.062075217283046574, -0.055439284841583565, -0.026235985934875933, -0.00490188616567685, -0.0015098862958452775, 1.1095666318591278e-05, 0.0006079384366010235, -0.0009520365332425559, -0.0003660260513240294, -0.02538058500819639, -0.07044663102945452, -0.06802287279478142, -0.07354528812744986, -0.022854670422931326, -0.02418077304350783, -0.025616229190914466, 0.0036446225006323127, 0.08096873722768415, 0.08459481096181685, 0.03466947924094295, 0.01521766787191026, -0.03928229939990591, -0.023668656723204604, -0.004864868593351786, -0.08096391727115722, -0.09868922111863605, -0.1324271440404102, -0.0834938354863135, -0.06313594727438926, -0.04813288889223243, -0.02420070556728866, -0.00605263636574942, 0.00014289109760995842, 0.0004296980446743435, 0.000718869840625126, -0.0008730001382553985, -0.013851262313126899, -0.04336526310422041, -0.06988552310030718, -0.05473448042776677, -0.08386467171177596, -0.0875061099317191, -0.06674502900053189, -0.053522128955258604, -0.024057564603671325, 0.01875141810003833, 0.009491137209338989, -0.059786080941335, -0.03278446377428988, -0.09360908698873206, -0.08512081227262085, -0.03801863008730473, -0.1114366943575363, -0.0950713541208676, -0.1159151300485983, -0.09840654376429589, -0.07755777098560725, -0.05801845434296958, -0.019699762503905916, -0.007346716661818623, 0.0006176584810610901, 0.00023543716719812304, 7.998108812387295e-05, -0.0005320279118195385, -0.01446997844380264, -0.03699864642807089, -0.07124544602371743, -0.08785599339187357, -0.11100494398343015, -0.07091162384380527, -0.08413947660738538, -0.12570619417426288, -0.1129336720740739, -0.08993858651685943, -0.09436141711381056, -0.10849209934877035, -0.1167354486396674, -0.17334837390335245, -0.14472666125664133, -0.07268495943757658, -0.07240659585186891, -0.07765208316758067, -0.10266667231495956, -0.07357264591686215, -0.05834376859489592, -0.03829440196150774, -0.0023975138139409402, -0.0004324429482034966, -0.00015139426803760975, 0.000807968885589161, -0.00044447153980548367, -0.0004142765845246378, -0.0053345773196736895, -0.046034696967378705, -0.08938552553512087, -0.1046681179484655, -0.12986956936064353, -0.0567321201604078, -0.08459396453897938, -0.1512000571013596, -0.173087933331493, -0.12714392692497542, -0.1446473150609487, -0.10340073317969924, -0.15627576614157657, -0.18399558380204117, -0.14510486497458436, -0.11309885450661217, -0.09933623108969016, -0.12656718537527176, -0.07369548654124093, -0.053611936039052496, -0.053862709391582546, -0.035240219098445685, -0.011406667762143236, -0.0020229594277188885, -0.001602090207883311, 0.0006495450458618562, -7.867301092634796e-05, 0.002168069680029189, -0.0018252007271780562, -0.03711374725776152, -0.09629757655520557, -0.11469983241322229, -0.13811836650895618, -0.09977666680188953, -0.10796627818011811, -0.11778582375069496, -0.13492441410584238, -0.12338864959540233, -0.12556427731589506, -0.14169363530661663, -0.1446446865535374, -0.16137751378504553, -0.12518733992725467, -0.1284412019676036, -0.10641519386445054, -0.11355027495130791, -0.06729346408012268, -0.030845414922521863, -0.03177904044091823, -0.031862880439947346, -0.006091177470257469, 0.00039269469150280203, -6.315954495325046e-05, -0.0002855706385963678, -0.0006910370134172734, -0.0027640896468555656, -0.014612431413644099, -0.020415329696803593, -0.06591053111723155, -0.1035374201009489, -0.12351278698739789, -0.12503453846291124, -0.11899293563557362, -0.09789462656680359, -0.12550719245443037, -0.10850087330025861, -0.13189670557617408, -0.12181673284947636, -0.11581447123006097, -0.1446241206108899, -0.13542723311085567, -0.12824354276701252, -0.07460270552843433, -0.05948147166387098, -0.005388292233037064, -0.01681448490670152, -0.03464900168658376, -0.019708551358302316, -0.0010155671513013777, 0.001459421471525986, 0.0007697944869528704, 8.485909177914109e-05, 0.0004988968663098958, -0.0028635728081035706, -0.013026069890070286, -0.023737452127101846, -0.04346258881208824, -0.06989135731925022, -0.06777006431839236, -0.09464484931251775, -0.0708749582266419, -0.056118094316272515, -0.07452167774942584, -0.055727765863633844, -0.019867842960364313, 0.008674713261083303, -0.05641785919505622, -0.14580150450118937, -0.0757040280334192, -0.026015209808582077, -0.017011541371344942, -0.014925516230903239, 0.00042092855844265593, -0.019733719877439534, -0.025006253714442275, -0.008880391731647648, -0.0025295661207406883, -0.0011415256260758897, 0.0012030958990928416, -0.0015988046101969612, 0.0007257786154636812, -0.003632518312693246, -0.0098785488836527, -0.019829254499983306, -0.01872144491219622, -0.021488467131266335, 0.00892493412182202, 0.0189191230399109, -0.010217863900825984, 0.02152143897393466, -0.015927747931069793, -0.02622050318804074, 0.01521875643367851, 0.07122390923003596, 0.023059878575356418, 0.0013519141618924967, 0.00968246361426474, -0.0004067058647072288, 0.01940941768432311, 0.033935349264351114, 0.01379258580101322, 0.0019313724959817466, -0.008372574163367667, -0.0030369624336040297, -0.0014005563099048417, -0.0002716561554488473, -0.0008834323181535596, -0.0018862378348438872, -0.0008108306842165347, -0.001585794712703315, -0.0015345016764587284, -0.01449782508750006, 0.005210472642320511, 0.002396671735758185, 0.011624391882746573, 0.012659895605516131, -0.013218617316050752, -0.014924347506738888, 0.008524966320039575, 0.028001338477896275, 0.06858101603603489, 0.0553755636100236, 0.014953349674659389, 0.012042835018908698, 0.028728724244303852, 0.05354279163833364, 0.07345016130342126, 0.042396881854636394, 0.008853768749976771, 0.0009375426683081701, 0.0016570606256202647, -0.0014679847410147286, -0.001324824045588289, -0.0034749529804533703, -0.0011164529962329776, -0.0014524092168507277, 0.0007047499985706456, 0.0024387579625825494, 5.18100189874473e-05, -3.833531362004055e-05, 0.012782019172734204, 0.018735772010437253, 0.02695927117403672, 0.010016942993313564, -0.002824521219813437, -0.00593719710746408, 0.021587380584845557, 0.05335483257481322, 0.07836962682643446, 0.04933099461565966, 0.01928272559647269, -0.0023237826451102278, 0.005919220999039354, 0.013332807578122111, 0.011518110907552632, 0.009094727037784196, 0.010866979268097264, 0.011144665647815065, 0.005836393725849677, 0.001613455493672504, -0.0007750133996521487, 0.0004284434390658494, 0.00033973231154705864, -0.0009535244561850706, -0.00048249399290772107, 0.0003780878652626807, 0.0018334305475290662, 0.00034088762852472034, 0.003932061100413976, 0.002200076988201044, 0.001083374265194949, -0.005070490196352955, 2.735238189081419e-05, 0.017626921119947573, 0.026308629896352617, 0.027938441245644097, 0.01904008055629332, 0.007528484278877685, -0.011271031037708813, -0.016609714674940435, -0.008146519107494088, -0.0020480478936145087, -0.00028137246978067194, 0.004189227839382564, 0.010779229758516952, 0.0031742246878476233, 0.0018653323543696464, 0.0021657922121126735, -0.00022915705792801947, 1.0390746102292125e-05, -0.0012807813410159437, 0.0006837644970328523, 0.0012073813513627043, 0.0014234491864101727, -0.0012050917376779495, -0.0010655046539646857, 0.0007754429366361196, 0.0005530539797946529, -0.0025947934076899584, -0.001025213511179159, -0.0021999239949494582, 0.0020336156304286415, 0.0027354647423168794, -0.007607033930813843, -0.005002543862757332, -0.0014176656354436675, -0.0002399863885125913, 0.0020313496014395644, -0.000461812808857128, -0.0014841510484912169, -0.0020086609242379303, -0.003767254567775074, 0.00241460628247334, 0.004297710963683287, -0.00011222854542815716, -0.0015779884637187678, -0.0007239099339154864, -0.0010028938071224979, -0.0005531671002464952], [0.000995399791987142, -0.0023253959940024147, -0.002472344069337403, 0.0023506410856745717, -0.0009732298361447907, 0.0014320229761235845, -0.002232437254401208, 0.0010387635514754231, -0.0017106251474026755, -0.0011945252807249677, -0.001689719372727603, 0.0006590248599098125, -0.0012625268064002588, -0.001212805883757373, 0.0008165398497021384, 0.0018969484388746112, 0.0005194050248646548, 0.00031581526072711725, 0.0009434840713213915, 0.002017725715715051, -0.0003004234074212142, -0.0011830271972325694, 0.0022298283466916347, 0.0017117878065236979, -0.0014688881808925596, 0.000983906931252156, 0.0004930244981008625, -8.591097030500893e-05, -0.001394176013971406, -0.0017068647438490527, -0.0006624580474627321, -8.715558533418688e-05, 0.0019854415960205147, -0.0016923763756395485, 0.001226192566553846, 0.00024349501749134492, 0.0009632763268654723, 0.0024225472764580046, -0.0004268600198455906, 0.0005044841154638285, -0.000891835745538898, -0.001807849740587252, 0.0006345872207163113, 0.0023248962856750525, -0.004063173299380874, -0.0004158718428489218, 0.0007203379571114485, -0.0006852676731471876, 0.00022739918900708015, -0.0043520752381107424, -0.005214953583562314, -0.0011550266643594299, -0.0016668474467194207, 0.0001373820862630118, 6.816625034440358e-05, -0.0018066058897457675, -3.985403707722061e-05, -0.00035541973608612087, 0.00029009877369236335, -0.0019213219011567297, -0.0008788987541924764, -0.00034745039947650354, 0.0015986035353138513, -0.002417472480786608, -0.0024384913989743085, -0.0012885094337701534, 0.004933387884706592, 0.009546747544430354, 0.002977951110632696, -0.009358915211432279, -0.025258350827125697, -0.03207503988177791, -0.0204088308943642, -0.01978348358829798, -0.0016959759667496603, -0.0006440264062879441, -0.005528028099136392, 0.00157423937122547, 0.0015914363091750485, 0.00021710835279507097, -0.0024976313450090926, -0.0007756484459170074, -0.0016953011841398045, -0.0005935951392318152, -0.000431377197491024, -0.0017806095619383123, 0.0013430457494460102, -0.001804954850485634, -0.0017426599601372242, -0.00020417869679489344, -0.0004971423209583077, -0.0012017757636501615, -0.015836297352305493, -0.019327248308602267, -0.03464087898618835, -0.08068389227751785, -0.09251492810493851, -0.10173603583389981, -0.015251100730176017, 0.09161058645903733, -0.0023449193400168398, -0.1442960402891741, -0.06337545435583847, -0.08923777883799967, -0.08675490004697778, -0.07435851583841072, 0.0011437557101467014, 0.013577381370817572, 0.009612307280847495, 0.0015006904018175918, -0.0018946881871172382, 0.0022454066097426016, 0.0025938553620525272, -0.00022426816199158487, -0.0009427940601110401, 0.0009361358720999379, -0.0015468128565391515, 0.0034178703943703397, -0.0027510188408008712, -0.029699039696269986, -0.08469813609274499, -0.15005808624112604, -0.17366570408687113, -0.13760804140067784, -0.14130873459624105, -0.14650089174188755, -0.29179366142564894, -0.2971763239919128, -0.38213784281346574, -0.3904588896748075, -0.4847623510564565, -0.5613001638401803, -0.3066662062273521, -0.12506076171157948, -0.12695173190293338, -0.06284467912627031, -0.02112110836583202, -0.016523414104305884, -0.007811889183542777, -0.004664462833763793, -0.0003699828641575224, -0.002176286120612594, 0.00740991266530699, 0.012485306661105904, 0.08263059663265573, 0.10271502765524997, 0.06098699927772673, 0.010849861805669657, 0.10469835030286677, 0.20056504154116525, 0.38837792078449557, 0.26709360935281673, 0.42642100036694436, 0.35205572350692593, 0.2224541945571442, -0.15385482092359434, -0.5807446361051387, -0.6720413372772805, -0.4578187475481931, -0.8277309165522856, -0.5875628606677105, -0.37193559339475174, -0.23576268104973552, -0.3533054086598005, -0.23072695050313424, -0.11191392194184595, -0.03241124821140731, -0.004253081294350548, 0.0006973474620403239, 0.0019564103141774813, 0.0008824564617823079, 0.018220485222399496, 0.025052807478595843, 0.07632910127678902, 0.09600206364050688, 0.06947329563961477, 0.06358163981311853, -0.168241618739479, 0.15560636374749862, 0.4148524909398221, 0.5228112290450879, 0.24854943050043288, 0.14846954938396678, 0.12047937178216465, -0.05315957650307112, 0.10951354991409082, 0.006228743719930561, 0.03201595518279964, -0.17703843875084382, -0.21112049077239098, -0.26429220555468164, -0.4362330203247592, -0.34261584889405966, -0.11265422396699665, 0.014430708740405673, 0.008993985490856895, -0.0005486765423167181, 0.013825176851399574, 0.007220247242413258, 0.015357327406960173, -0.1058978482212707, -0.295751032727544, -0.3061522945630995, -0.35238395656224575, -0.4045648112191187, -0.45828156332984543, 0.029065876143849333, -0.02270794323162738, 0.1273213392019039, -0.1902419509297286, -0.03199582852364919, -0.22720456221710505, 0.032051918586318985, -0.11583425834219652, 0.13223364064766702, 0.4097667630576409, 0.1672268103689463, -0.3059383358804141, -0.34240720903125677, -0.3363659267749653, -0.31774201551234327, -0.07884074051878112, 0.08723348767949053, 0.00829901159800626, 0.0007210631523972552, 0.008678573223863575, -0.0056140411930968165, 0.029478310310886102, -0.19276592060544462, -0.4356194907918773, -0.38925623396059816, -0.33322908501174225, -0.3733230106030085, -0.3462927038013804, -0.32270528649222535, -0.0624024499220197, 0.23487940918257894, 0.14561113135163858, 0.13009851956815102, -0.09477192817554347, -0.11957559077397414, 0.016657487694939715, 0.2005270618231929, 1.0360429222592409, 0.48720975105841935, 0.4362063085907636, 0.33487565123931695, -0.20936762098245046, -0.013931722381677232, 0.02337366350944915, -0.036383160659869775, -0.010979063164946857, -0.00036311224482409233, 0.007828896765812568, -0.013487341923431031, 0.0362454507854096, -0.18440266441974396, -0.2204211100838392, -0.22057537832054158, -0.1725133566804969, -0.20847085846271335, -0.33507807222038605, -0.31029060015018384, -0.21875982468071736, 0.12335100271599729, 0.22407799197632958, 0.40651703641236203, -0.23696702910783382, -0.43176250632394986, -0.1986301701359852, 0.07592639520198666, 0.9969442639741365, 0.8847662240816813, 0.8455135112098412, 0.8858510805687941, 0.12438950437307425, 0.15446916512033887, -0.0031228272354728377, -0.0812878835877801, 0.0031186770271936356, 7.76559441729148e-05, 0.0018027606660627657, 0.014193657810293313, 0.02989723017937518, -0.06521242636109854, -0.0056719000253845, -0.01889194669245954, -0.21427233106551166, -0.35711741047708523, -0.5859101020480653, -0.44222295102656517, -0.12499193363427145, -0.09068794510979719, 0.22160029881837934, -0.2766450563664746, -0.41218448954029696, -0.11169477488925306, -0.0023695769604018583, 0.1924082920170188, 0.7878828049142047, 0.7659988591805001, 0.7245484490048476, 0.6060242403042939, 0.109040216371852, 0.05077754620354745, -0.10230477973772756, -0.08287590076041429, 0.0026186995498393845, -0.0014648887753686795, 0.003410180170321281, -0.005737424014737789, 0.02582070497492138, -0.0013236122231909983, -0.05823706400956603, -0.02774857877975502, -0.013277740363171309, -0.033607122781182004, -0.27801844264929654, -0.06987615120968471, 0.1941984820978287, -0.12192628939283222, -0.3288050453937047, -0.607264435373977, -0.6908420208899669, 0.17563577365663136, 0.6760838425245191, 0.41037732101445434, 0.7862133508605469, 0.4652485656146697, 0.5973912232882845, 0.2774649637749383, 0.08122529126238867, -0.010658933791632979, -0.025652664730488023, -0.02799653141748493, 0.0016659959365495794, 0.00019197696191975918, 9.604796299830992e-05, 0.0356902516323564, 0.08011576055038824, -0.04255219548038425, -0.09390393842130626, 0.05373371238765835, 0.23774850702872538, 0.29626728451670314, -0.35529389603057937, -0.16515306909689467, 0.04951506982843976, -0.43064458645376524, -0.7000743258329793, -0.5627227444902904, 0.0713874232288825, 0.9021010926516062, 0.5461302725852738, 0.5525943676614902, 0.07731857077686179, 0.1825457381497405, -0.020559436920448527, 0.08447673157112706, -0.04423430177044395, -0.10689577261747601, 0.011031307257508382, 0.00845406217833382, 0.0027409172014344193, -0.0012187497289124919, 0.0018583827126561383, 0.06782300169793448, 0.06391976026551685, 0.03439424674323315, -0.0036993669923350144, -0.0003777153466986318, 0.18726608071274312, 0.19031420034509092, -0.05225329171310947, -0.16696121840582884, 0.057442410932873354, -0.15503779739964604, -0.25320464461412967, -0.12175878530318547, 0.643103781352639, 0.5587604890916764, 0.26226706292142465, -0.03402029815975587, 0.020903910961472105, 0.09396168339953631, -0.054316431901260405, -0.03297321621131485, -0.000499965100374115, -0.025568121031865638, 0.04676063075576746, 0.01977816431409528, -0.0014336564621537224, 0.0010449459213617673, -4.545786218065471e-05, 0.01411135940779736, 0.02598526817733861, 0.03993788541633889, 0.0029949341971808397, -0.2057293068896327, 0.02776629745774174, 0.14345402811312327, 0.10024963581720171, 0.19055029700700524, 0.1517146890066354, 0.3818097406108847, 0.1287456364673308, 0.8616262618502262, 0.7122437272497055, 0.4118018302146517, 0.12081208421835804, 0.17874581425608652, 0.18219480857489082, 0.14194749560455885, 0.1334534863965886, 0.12463562867604355, 0.09171444161007926, -0.12759102217458043, -0.01579689632040796, 0.0004599944506717876, -0.00209166497050152, 0.000825330550367205, 0.00027296049876971784, 0.003277699215470778, 0.007280601049006604, 0.00022368772488544532, -0.12488396649086296, -0.24610562204584358, -0.21773196001563105, -0.33696626995883705, -0.09563006377422457, 0.28575361472614924, 0.20542781382198858, 0.1028297886028391, 0.32567653663838325, 0.6220387286281749, 0.5824722751869034, 0.38441564533025313, 0.14241553682874772, 0.1457740753094666, 0.010633783368442768, 0.1519964699323876, 0.13956041994836085, 0.10698221674759763, -0.03385720899131998, -0.07972628215728735, -0.038006927680391246, -0.0017317613211906729, 0.00025532843273892307, 0.001324565130269305, 0.0004289097085130181, 0.034827408854096784, 0.04034777558336889, 0.07532152956796888, -0.18473528883381604, -0.35310961658106277, -0.48473972821170025, -0.5853610321666529, -0.541984172548186, -0.3535184955283089, -0.4922227015562533, -0.6275528672152134, -0.38993759871362177, -0.32850106152444236, -0.055598222065824286, -0.06046645474966532, -0.038788996741083666, -0.3654930495736844, -0.08456597925530406, 0.0543709618971504, -0.06904506540198439, -0.10703505105587827, -0.16866645291021684, -0.05562745810179759, -0.030918575256977127, -0.004722202975982532, 0.0015020899712085917, -0.0025111974755766746, -0.0002810333479184429, 0.06441476995431841, 0.08287642051425236, -0.02579270235292426, -0.20821293698952434, -0.5788428539423658, -0.7922037288254157, -1.0064522808109322, -0.7125222615687961, -0.5896020266926261, -0.617690080500254, -0.7499845391385194, -0.3193763768087337, -0.3968295970903011, -0.0706903946906341, -0.1104824624792161, -0.24921379973642324, -0.46157738257647724, -0.25059039558514534, -0.28540671118791305, -0.21843376125511035, -0.2245800941680067, -0.19034187173400904, -0.0067889350054622915, 0.016455301020720268, 0.011435116900976731, 0.00039055169145077716, 0.0016554041858534527, 0.0003868261617929841, 0.04446168930422406, 0.09788569431636321, 0.025493512878500553, 0.1346594414693752, -0.3562430967102573, -0.7752684921438024, -0.8056738964393612, -0.8601733988754984, -0.927822631601592, -0.901393300731968, -0.5184619364996635, 0.1639865810555984, -0.05651908528880893, 0.11820516190828752, -0.23557904664032409, -0.21668763003226768, -0.20465266627619083, -0.2540074382624689, -0.42114798952189814, -0.40080190527343323, -0.40571393272492057, -0.24871301899279227, -0.07597985514549246, -0.0010680812006313247, 0.006885559557496109, 0.0007700140495192081, 0.0018602724352877347, -0.005660102304739837, 0.09691280957024992, 0.18649471926339922, 0.3251389143812975, 0.21916398008165025, -0.10680815083273125, -0.2878373030966142, -0.7282438420186194, -1.0285799419192465, -0.830576756614272, -0.7822585568882132, -0.024027808732499465, 0.5904601629557261, -0.05660399545423935, -0.5694999752331439, -0.32900892390791253, -0.29458398049686507, -0.33527541907687347, -0.464326675289823, -0.45088293184338907, -0.4302856506936642, -0.3611217047054386, -0.23408787851609933, -0.09595557821552986, 0.001782385977435573, -0.0004356279665135319, 0.0001498400570080934, 0.00034774533542233596, -0.0124097228941047, 0.05391827083500816, 0.2172929182913421, 0.524953627118046, 0.2173508696733688, -0.007511216568365718, -0.15950931920554415, -0.3791895016709653, -0.4088919160863771, -0.4185672153172653, 0.0006003265782274951, 0.8522900221060995, 0.8845161924051098, -0.3077963469399932, -0.8483603864805453, -0.8877624821555736, -0.6181942834110389, -0.4997016304439937, -0.5719927171930451, -0.4742218917227652, -0.37519519564147275, -0.3191496227691327, -0.18959895423726003, -0.023731954758330166, -0.004422091547263386, 0.0010809448358755135, 0.00031022179582209416, 0.0020445903715008186, -0.007332069761569754, -0.0427362262097972, 0.07065595395814353, 0.4038497047203569, 0.322863119015245, 0.07301578289625722, -0.04838962048389845, -0.1417470439563171, 0.05465322238983874, 0.19314561240134362, 0.33018058116351473, 0.5767898090951106, 0.10417655850253818, -0.7121766043780464, -1.1532879048371751, -0.7107054519412379, -0.6426081846751278, -0.4573791829520114, -0.42602174973554197, -0.36588495324431464, -0.3146588299779667, -0.29079841647768373, -0.12388216113843978, -0.00573770805227415, -0.006980632908377439, -0.0015971923490478287, -0.0008421831065561473, 0.00032042135433544357, -0.00023513474704758432, -0.03844365487720929, 0.01006953230271317, 0.3218484208877012, 0.2604395664367864, 0.10857876954688811, 0.358087395327163, 0.06690473355780122, -0.056568253071239576, -0.20590092283041395, -0.3170400402600735, -0.26625127729470827, -0.4790484051641049, -1.0253801307911325, -0.6196847210215122, -0.3840988243766192, -0.3824998318748171, -0.34160890480584, -0.27384122744983147, -0.3177665782821895, -0.26963880503438176, -0.21586487595311538, -0.04529888716398392, 0.0061809458668490485, -0.006415180432384256, -0.0030609461516892048, -0.001246640377534163, 0.0010172977131668837, 0.0005444541311039763, -0.014801678571195772, 0.1428866232839995, 0.285432659713345, 0.47917323628860803, 0.4180418645534739, 0.41511457076890723, 0.1923148062876219, -0.15447636639558562, -0.10949412569395552, 0.05197227653764648, -0.4046306727205123, -0.7139347981844175, -0.8496959971562182, -0.5878473726261593, -0.5357761903394782, -0.46696486135035337, -0.24953653886707935, -0.16753656044556392, -0.13557261795805664, -0.18457852904382852, -0.11069377318851514, 0.002268807366184708, 0.03683518026335704, -0.0017337770582519102, 0.0009326681200912761, -0.0008094351579137491, 0.0008654552755936271, 0.0008561492879753294, 0.013003253718908394, 0.14168297200434368, 0.3642894785206801, 0.6289917907488642, 0.6544807203947298, 0.577277665260076, 0.7143948613381623, 0.2871373960777706, 0.574891999456246, 0.4984000657863155, -0.5255139186874791, -1.1723275857497102, -1.0130677107220638, -0.7568729825690098, -0.6517086762141009, -0.5453626329397032, -0.3010207170261491, -0.2358872714349809, -0.15642749254709687, -0.11652282815391203, -0.020691626009447534, 0.0468883072837697, 0.013353150147938465, -0.0030776286534233244, -0.001054492376461934, -0.0012564483000998736, 0.0024093920009308494, 0.0015723284857830108, 0.001695543540546108, 0.025884409145769647, 0.15979824226142203, 0.37507756640197737, 0.4465014131187524, 0.41579138516363245, 0.7861350281144505, 0.76139251109413, 0.5382303686418876, 0.2710663366783514, -0.6872194451784805, -0.8289326032558032, -0.5646961178740865, -0.5020576223154375, -0.32878818605330273, -0.2866033112478495, -0.20564487936166523, -0.11515426831812561, -0.03542560468485101, 0.013544013846381828, 0.006949819946076767, 0.02800960809297478, 0.002234368729291777, -0.001241737037357602, 0.00039421115894897524, 0.0009740865274011513, 0.00033117716856386213, -9.187445391803958e-05, 0.0020355100544010942, 0.0007906595004618376, 0.01631995170715142, 0.16170513822506968, 0.2136693239327589, 0.18749359163540552, 0.24013393289889767, 0.232330370389177, 0.21239561701440896, -0.11426110171524904, -0.18356741267169358, -0.025999016653574073, 0.03770535715503402, 0.012166042979998674, -0.02717497580292633, -0.035405371308853954, 0.01948228254545982, 0.013223847304805369, -0.009783071250776059, -0.004637328377871937, -0.0029997914806589696, -0.002952889138278849, 4.454474880838714e-05, 0.0017780876329932048, -0.0009616238081451014, -0.00015232110517830372, -0.0011618544899434286, -0.0010209903599813339, 0.0007601857447277696, 0.000649937423205397, -0.002990343738368082, -0.01981334422949758, -0.030068369153747995, -0.0005647775505487995, 0.027187790648362156, 0.04617676168967822, 0.06516597464266982, 0.04531663412823635, -0.003661876868815744, 0.00892186600486927, 0.0010226313258889618, -0.0009066965496528063, -0.012770230541187687, 0.00782751428379466, 0.031120482737322146, 0.0011952259961295292, -0.0020742434896096353, -0.001067514160517387, 0.001975015053692029, 0.0016405874835613689, -0.001699688148581299, 0.0013612220990237755, -0.0005336181803631468, 0.00026643349663979136], [0.0005421376033214693, -0.0010224146790160918, -0.0016579852019024091, 0.00018812878950262755, 0.0001748321986990971, -0.0006968140122372517, -0.0011043318614530504, 7.243096039622978e-06, -0.00036335947684444365, -6.897461475517575e-05, 0.0022358021774743506, 0.0007057855829552654, 0.0016296651204451536, -0.0007304771476385135, 0.001939347560787555, -2.606029383622315e-05, 0.0001607621551614779, 7.443700642208021e-05, 0.000444390314139473, -0.0018723708583304576, 1.67718676118347e-06, 0.0008239451094697305, 0.0017281211678505338, 0.0005472544510394812, -0.0008050694662203649, -0.0016676853447407294, 0.0004014134141667389, -0.0021868009852996024, -0.00016511100747134867, 0.000646842635163478, 0.0001265243424652107, -0.0003154052786497514, -0.0022927285974349114, -5.474247406141551e-05, 0.0013185828301843134, -0.0003097452395832858, 0.030367704382378395, 0.007369118736151184, 0.00022646649004972515, -0.0015952875611004024, -0.0051425701389749955, -0.003464375988438786, 0.0008909498246780873, -0.0017289950397480463, -0.006567424709757056, -0.0014707386186043317, 0.0011233873549197143, 0.0014635724880005688, 0.00016321590699569535, -0.00021060541872499396, -0.0011932500744264358, 0.0012874120540243064, -8.502729114788884e-06, 0.0017640519990877116, 0.0021644760446103456, -0.001612174339556705, -0.0005660505744815267, -0.0001245885717827328, -0.0012766528578763152, -0.0009881649324978193, 0.00010364685208642193, -0.0013800878955066577, 0.00013818584598056425, -0.00018588790576200704, 0.037492075932786154, 0.017679941681094092, -0.0012541817324788717, -0.0010669602692701275, -0.017202111606620593, 0.036353391966460126, -0.014710820597687807, -0.17704650249331885, -0.15174544195002135, 0.030112062211860566, 0.2452972176828737, 0.09441181956472089, 0.002535195803118559, -0.02817141259118142, -0.00818130724507032, 0.008847886133710372, -0.0015945859332016504, 0.001945287006038413, 0.001179828513878519, 0.0011055409884559305, -0.0008545075902428818, 0.0010227816942397097, -2.532017607232735e-05, 0.00040825001769062845, 0.0003914748428283852, -0.01803297358947516, -0.010671610958166941, -0.0006614142461937061, 0.03271272488337104, 0.028440862583568597, -0.11384382213421448, -0.4522952106579349, -0.4372010169732009, -0.2558382830780055, -0.3654885386974539, -0.4145946112863915, -0.4060899617230258, -0.07319699670950436, 0.006989512159110981, -0.099742421437702, -0.37097692303946184, -0.41373032715600805, -0.47656623047618546, -0.38974046595991974, -0.031108244315228892, 0.14531747084746904, 0.012365706291711928, -2.123281646600019e-05, -0.0009685411123797914, 0.00015274036523551425, -0.010217195156980973, -0.004732129773670635, -0.056895807937469976, -0.3382179936137506, -0.25689536610642966, -0.11747723094157982, -0.7101037051158771, -0.45677546805901154, -0.21272545447591662, -0.242985455432589, -0.15576055863416213, 0.16379281746844448, -0.23479396409338366, -0.1699068329367855, 0.2627078243063821, -0.24432733220755684, -0.133599644458689, -0.6071769840056654, -0.5484353504172153, -0.2980008888244588, 0.10365102947057195, 0.34719038304421407, 0.35641964907844587, 0.2604378841389214, 0.143320553669232, 0.000274141904927866, 0.0009688922964777951, -0.000626873621582617, -0.005229244860846879, -0.037029557881005225, -0.27425055548516003, -0.6006273558287427, -0.6657071187571154, -0.8933769104464561, -0.2536291772319719, -0.05091594574237106, 0.02189712608885351, -0.0905236429977482, -0.25536189418996347, 0.28906283275916217, 0.04805706596718329, -0.7322615745970971, 0.32348610279824735, 0.4775186383204254, 0.794214831076045, -0.34937809561690997, 0.3409752757607501, 0.11842715169237567, 0.8177905369255439, 0.6599381129859191, 0.5759808210830734, 0.2825338603139585, -0.04326544068683671, -0.0008439876764203081, 0.0007444239420937215, -8.546396019350287e-05, 0.021356911246000018, -0.1253576040870863, -0.26161570826283054, -0.6767627042714691, -1.03743971681625, -0.3680605884198027, -0.04597197884566667, -0.10957580923416811, -0.04489186792371855, -0.20238957338621316, -0.09322513534081187, -0.1726635709912808, 0.8368308723977038, 0.03879646372836228, 0.24543010091186676, 0.7326794856861327, 0.2966446679682977, 0.7520181500421422, 0.695305040081904, 0.2132138734355999, 0.9945227643202483, 1.2467203750531364, 1.4558268666210756, 0.4812441561733541, 0.03235237226554446, 0.004808695471533945, 0.00019617405107468777, -0.0027049293567678596, 0.0027854569643285753, -0.12749128441639968, -0.42420651182490826, -0.4599411177386577, -0.5223345479213135, 0.09578892527966593, 0.4899640803071524, 0.15627663469949962, 0.21467657336599585, -0.4384133534411201, -0.18904602554066552, -0.5998509245957757, 0.2777429518442681, 0.41162809633408415, 1.3028121856072976, 1.0560279729333868, 1.0517720496289535, 1.044357876312971, 1.4513148940027205, 1.0041632148226445, 0.9290494050087242, 0.8910593467332809, 0.8883753262388532, 0.3545539259067257, 0.0074633318131773745, -0.025518384259304798, -0.0006428343257454029, 0.00023710960002302218, -0.010242037718952877, -0.23646564320592198, -0.670982677546725, -0.3132439112484565, 0.13920132431629662, 0.14505730029241168, 0.10743020191695145, -0.5439276415617829, -0.04203451475418925, 0.5106427205027373, 0.0434211223106461, -0.27461217566914925, -0.06004293757680239, 0.12822929514036985, 0.15298880652276126, 0.7353621012358234, 1.0572789931553925, 1.1538906680749639, 0.8680113994709869, 0.6082067184150107, -0.06419111570161322, -0.046820710156278346, 0.19701893642178975, -0.09739129071961608, -0.06009143940960248, -0.0036710590190710568, -0.0010473369881443709, -0.0008762005965261589, 0.00027399706537003745, -0.3076463616430972, -0.46133550143357593, -0.3238759677350775, 0.05813358872066806, 0.0989793265920876, 0.0753753731250336, -0.01940127311142166, -0.2539299794228915, 0.28722096687988347, 0.3096912325770032, -0.9749987491724501, -1.239430970172283, -2.077242489212745, -1.8554133184576138, -1.7071918169612526, -1.9370183890155794, -2.0225581540310427, -1.8284297831300764, -1.4064289182588812, -1.350282102856858, -1.1732534541180297, -0.2162199649413542, -0.2825740609840228, -0.04956771177613935, 0.006411545022004898, -0.002778008874677758, 0.0008205433692635697, -0.0006186328467344885, -0.20816316279255825, -0.40815736152741156, -0.618172927024013, -0.15941419055037317, 0.142081732262185, 0.22205176450247588, 0.6734926263441094, 0.08673277244946986, -0.20005035449650105, 0.18896903793797531, -0.7454054781504308, -1.9584701008754735, -2.192309672176778, -3.0981863462095465, -3.7680676933498667, -4.195625446040182, -3.764309259693375, -2.8733114646463624, -2.0976802104467103, -1.8024225073056312, -1.6932689961052463, -0.6537652650991099, -0.17721861214135484, 0.024893152649024995, 0.008654056906561125, -0.0009834477947543833, -0.0015719269062831093, -0.0017105451995691689, -0.2364539242096573, -0.4272887298412, -0.6302870687235882, 0.05563117606165599, -0.23102593526886897, 0.18717450816243372, -0.27795198397731324, -0.24264280594674242, -0.20960631381598036, 0.1238926283151495, 0.012853718123970948, 0.6372278352119776, 0.5408991968136979, -0.03723503978372596, -0.9347210910867569, -1.053273415127388, -1.951025657208633, -2.2069918578864036, -1.952796657839843, -1.6791136087185112, -1.432546303968841, -0.9258497209689863, -0.189158741883157, 0.004833893585406686, 0.0003792771988245119, 0.0006600112871980192, -0.0005608595209263293, -0.0015266148918577974, -0.10852677882482026, -0.2992260110896099, -0.20589986047726, 0.000778573884539424, -0.32569847810865327, 0.5165048067689165, 0.3952893764404718, 0.1957852839178668, 0.0869351364699784, 0.30921345113360454, 0.37546417223722445, -0.09952420034573378, -0.4736777431071289, -0.24635365799787662, 0.07059581187641295, 0.17956289187939337, 0.24961147701990705, -0.24553223902717533, -0.574391465600556, -1.1016311856781467, -1.1401744196034782, -0.8473160391471058, -0.1746619257204835, 0.02869691508364033, 0.0038515338429300577, -0.0011498682966318478, 0.0023529801350832, -0.001203997279963433, -0.07396046599475406, -0.15336384875111828, -0.00040591774512588444, 0.1508013323575488, -0.017220670122234143, -0.2388090778112656, 0.036487883327486335, 0.5492465853042542, 0.510417841818623, 0.14916983682332646, 0.2492228813372158, 0.2616673936194509, 0.09727087179501134, -0.6367491949813157, 0.030745744772951708, -0.009084845913975518, 0.47265587590313984, 0.35488642502893636, 0.09310936303393044, -0.11908501285337178, -0.5413550560380814, -0.5298481421113191, -0.15840515561648416, 0.03672347155799512, 0.002325569205201979, 0.0028690642601905494, -0.006365221523369843, -0.006473505620346397, -0.021644716302610053, -0.15087497576987854, 0.02846557058283452, 0.06201453040736652, 0.26973323065064403, 0.5307545303631189, -0.18357740070591305, 1.0167555056439472, 0.4643423706254615, 0.7373869295054062, 0.45960812199873735, 0.007948784627011745, -0.20209922010927858, 0.08999105607228146, -0.18108823568091484, 0.5828594759534307, 0.12355965186522862, 0.6502615590072847, -0.439215286043417, -0.27827237648021513, -0.002089386794995212, -0.19543448545183992, -0.24912470646858972, 0.00984827827803096, 0.0007269701614363731, 0.004338070842707843, -0.014937989661728617, -0.009341199628870693, -0.07928529709460976, -0.31310934317669087, -0.19975434947195775, -0.5318433103144264, 0.007494925987772772, 0.7593348119091942, -0.2154168239546186, 0.13532604086517497, -0.001316710683209398, 0.43046768124454127, -0.07697904996319462, -0.4696713266576607, -0.1492336274641651, -0.12392119431149916, -0.08783364048045274, 0.3056180784278582, 0.23477542403386223, 0.35303683190451657, -0.3006522482963167, -0.4362411890130801, 0.07434242677524595, -0.15194802440262195, -0.20669097238305836, 0.009523027486280552, 0.0021071379858425996, -0.00044072479741061543, -0.005069299744053575, -0.06738107974794366, -0.008809392206540279, -0.377994583399325, -0.2876459201156564, -0.6690810480587093, -0.790294493029052, -0.686249198550785, -1.0606490171946343, 0.03990587713646883, 0.046520470570282836, 0.6314143377453302, 0.16746745574212032, 0.41233781356174826, 0.5114961266041234, -0.09242827671241233, 0.11187492949698777, -0.3958209108070006, -0.5795315141779717, 0.05889714349187897, -0.1189029715376833, -0.5257773274288121, 0.03762494091225778, -0.12914420804542365, -0.12264883531595762, -0.02653749742792762, 0.00011197007475254962, -0.0006670490015294436, -0.00041646501150025613, -0.1140536693225308, 0.11049947817258411, 0.01618112386732506, 0.040016086541956646, -0.35519416656946623, -1.0049586130835366, -0.912064813267217, -1.054491599275532, -0.4064000957563744, -0.15997384776785858, -0.8210226096831068, -0.11104735980897884, 0.17223731167453757, -0.14704450011463083, -0.5674801261435869, 0.0731546326067151, 0.6927218706631988, -0.36381063987985623, -0.16408460785564374, 0.2972862500361498, -0.29626834988188583, -0.1457137278844498, 0.21724605777052777, 0.000333525735879109, -0.011516305321330163, 0.001138104456022335, 0.0013184309404192932, 0.0034342971806749323, -0.11629787605722577, -0.06566029559922587, 0.41781690497734214, 0.5997486801970342, 0.06134031083619531, -0.2782589003572858, -0.46250567670449605, -0.8074721369134109, -0.43347838156730656, -1.405917467341559, -1.5164140186660209, -0.3495323091741961, 0.3575899200006718, 0.40343746859902113, 0.594113825961656, -0.07101431191085175, -0.3267811084198511, 0.320488931868823, 0.15107490102965768, -0.06678013763393319, -0.19387619238270584, -0.19447801983068821, 0.25205563842276313, 0.05016159899023915, -0.0076492407377252575, 0.0016567006231664589, -0.0002049474214425637, 0.004847220926644604, -0.19934609721129282, -0.29260302998103965, 0.20725057113556955, 0.6421797621107223, -0.2624197709671476, -0.5460909271825629, 0.24039569204356057, -0.47997436089422674, -0.21187321434150408, -0.010352971838966468, 0.06825101299610448, 0.12689590688016286, 0.7461143425542542, 0.4191257093159953, 0.6309754485442871, -0.204441568977857, 0.11174308878915303, 0.25246000164532373, -0.2581955475097743, 0.0794019292028987, 0.19703125292915163, -0.20891201489107566, 0.4357177569519772, 0.13307745189452738, -0.006040552328759624, 0.003485800518962968, 0.0008857248907408242, 0.0011538261397037938, -0.12688088253463706, -0.32417842753808657, -0.1650290229398117, 0.15143490645856617, -0.16033319780105945, -0.4611912594558942, 0.2398612236955032, -0.2762818075488618, 0.10625530987653188, 0.07545283293942281, -0.471143780020468, -0.2535987760747066, -0.496709368280625, -0.32430667869193186, 0.6099197496248093, -0.04538973876852856, -0.7615331232469343, -0.3040699968731556, -0.4308558310335768, 0.5334483662638347, 0.5240774646445024, 0.2844680240641461, 0.38086059501675124, 0.16408729515860543, 0.010754621321469204, -0.0017791884247807146, 0.000386983643678925, 0.0008034733159918902, -0.04014949411538359, -0.09828707928911957, -0.11385289593788137, 0.24803105958807972, 0.5517380829539534, 0.8584745002786109, 0.2111150534490262, -0.3715105261129029, 